digraph Tree {
node [shape=box] ;
0 [label="cvcresponsecode <= 1.0\ngini = 0.5\nsamples = 426044\nvalue = [213022, 213022]"] ;
1 [label="cardverificationcodesupplied <= 0.0\ngini = 0.272\nsamples = 243365\nvalue = [39509, 203856]"] ;
0 -> 1 [labeldistance=2.5, labelangle=45, headlabel="True"] ;
2 [label="amount <= 65.888\ngini = 0.361\nsamples = 8494\nvalue = [6490, 2004]"] ;
1 -> 2 ;
3 [label="amount <= 51.168\ngini = 0.001\nsamples = 2900\nvalue = [2899, 1]"] ;
2 -> 3 ;
4 [label="gini = 0.0\nsamples = 2154\nvalue = [2154, 0]"] ;
3 -> 4 ;
5 [label="amount <= 51.22\ngini = 0.003\nsamples = 746\nvalue = [745, 1]"] ;
3 -> 5 ;
6 [label="gini = 0.045\nsamples = 43\nvalue = [42, 1]"] ;
5 -> 6 ;
7 [label="gini = 0.0\nsamples = 703\nvalue = [703, 0]"] ;
5 -> 7 ;
8 [label="amount <= 71.615\ngini = 0.46\nsamples = 5594\nvalue = [3591, 2003]"] ;
2 -> 8 ;
9 [label="txvariantcode <= 3.5\ngini = 0.34\nsamples = 1430\nvalue = [311, 1119]"] ;
8 -> 9 ;
10 [label="amount <= 68.448\ngini = 0.13\nsamples = 730\nvalue = [51, 679]"] ;
9 -> 10 ;
11 [label="gini = 0.0\nsamples = 26\nvalue = [26, 0]"] ;
10 -> 11 ;
12 [label="currencycode <= 2.5\ngini = 0.069\nsamples = 704\nvalue = [25, 679]"] ;
10 -> 12 ;
13 [label="shopperinteraction <= 1.0\ngini = 0.061\nsamples = 701\nvalue = [22, 679]"] ;
12 -> 13 ;
14 [label="amount <= 70.401\ngini = 0.056\nsamples = 699\nvalue = [20, 679]"] ;
13 -> 14 ;
15 [label="amount <= 70.331\ngini = 0.148\nsamples = 212\nvalue = [17, 195]"] ;
14 -> 15 ;
16 [label="amount <= 69.571\ngini = 0.088\nsamples = 196\nvalue = [9, 187]"] ;
15 -> 16 ;
17 [label="amount <= 69.566\ngini = 0.149\nsamples = 111\nvalue = [9, 102]"] ;
16 -> 17 ;
18 [label="amount <= 69.118\ngini = 0.135\nsamples = 110\nvalue = [8, 102]"] ;
17 -> 18 ;
19 [label="amount <= 68.613\ngini = 0.029\nsamples = 69\nvalue = [1, 68]"] ;
18 -> 19 ;
20 [label="gini = 0.124\nsamples = 15\nvalue = [1, 14]"] ;
19 -> 20 ;
21 [label="gini = 0.0\nsamples = 54\nvalue = [0, 54]"] ;
19 -> 21 ;
22 [label="gini = 0.283\nsamples = 41\nvalue = [7, 34]"] ;
18 -> 22 ;
23 [label="gini = 0.0\nsamples = 1\nvalue = [1, 0]"] ;
17 -> 23 ;
24 [label="gini = 0.0\nsamples = 85\nvalue = [0, 85]"] ;
16 -> 24 ;
25 [label="gini = 0.5\nsamples = 16\nvalue = [8, 8]"] ;
15 -> 25 ;
26 [label="amount <= 71.423\ngini = 0.012\nsamples = 487\nvalue = [3, 484]"] ;
14 -> 26 ;
27 [label="amount <= 71.04\ngini = 0.005\nsamples = 414\nvalue = [1, 413]"] ;
26 -> 27 ;
28 [label="gini = 0.0\nsamples = 258\nvalue = [0, 258]"] ;
27 -> 28 ;
29 [label="amount <= 71.04\ngini = 0.013\nsamples = 156\nvalue = [1, 155]"] ;
27 -> 29 ;
30 [label="gini = 0.0\nsamples = 1\nvalue = [1, 0]"] ;
29 -> 30 ;
31 [label="gini = 0.0\nsamples = 155\nvalue = [0, 155]"] ;
29 -> 31 ;
32 [label="amount <= 71.426\ngini = 0.053\nsamples = 73\nvalue = [2, 71]"] ;
26 -> 32 ;
33 [label="gini = 0.0\nsamples = 1\nvalue = [1, 0]"] ;
32 -> 33 ;
34 [label="amount <= 71.514\ngini = 0.027\nsamples = 72\nvalue = [1, 71]"] ;
32 -> 34 ;
35 [label="gini = 0.074\nsamples = 26\nvalue = [1, 25]"] ;
34 -> 35 ;
36 [label="gini = 0.0\nsamples = 46\nvalue = [0, 46]"] ;
34 -> 36 ;
37 [label="gini = 0.0\nsamples = 2\nvalue = [2, 0]"] ;
13 -> 37 ;
38 [label="gini = 0.0\nsamples = 3\nvalue = [3, 0]"] ;
12 -> 38 ;
39 [label="amount <= 67.838\ngini = 0.467\nsamples = 700\nvalue = [260, 440]"] ;
9 -> 39 ;
40 [label="txvariantcode <= 9.5\ngini = 0.308\nsamples = 542\nvalue = [103, 439]"] ;
39 -> 40 ;
41 [label="txvariantcode <= 8.5\ngini = 0.286\nsamples = 531\nvalue = [92, 439]"] ;
40 -> 41 ;
42 [label="gini = 0.0\nsamples = 10\nvalue = [10, 0]"] ;
41 -> 42 ;
43 [label="currencycode <= 0.5\ngini = 0.265\nsamples = 521\nvalue = [82, 439]"] ;
41 -> 43 ;
44 [label="gini = 0.0\nsamples = 4\nvalue = [4, 0]"] ;
43 -> 44 ;
45 [label="amount <= 66.496\ngini = 0.256\nsamples = 517\nvalue = [78, 439]"] ;
43 -> 45 ;
46 [label="currencycode <= 2.0\ngini = 0.063\nsamples = 123\nvalue = [4, 119]"] ;
45 -> 46 ;
47 [label="amount <= 65.985\ngini = 0.048\nsamples = 122\nvalue = [3, 119]"] ;
46 -> 47 ;
48 [label="gini = 0.172\nsamples = 21\nvalue = [2, 19]"] ;
47 -> 48 ;
49 [label="amount <= 66.238\ngini = 0.02\nsamples = 101\nvalue = [1, 100]"] ;
47 -> 49 ;
50 [label="gini = 0.0\nsamples = 51\nvalue = [0, 51]"] ;
49 -> 50 ;
51 [label="amount <= 66.241\ngini = 0.039\nsamples = 50\nvalue = [1, 49]"] ;
49 -> 51 ;
52 [label="gini = 0.0\nsamples = 1\nvalue = [1, 0]"] ;
51 -> 52 ;
53 [label="gini = 0.0\nsamples = 49\nvalue = [0, 49]"] ;
51 -> 53 ;
54 [label="gini = 0.0\nsamples = 1\nvalue = [1, 0]"] ;
46 -> 54 ;
55 [label="amount <= 66.561\ngini = 0.305\nsamples = 394\nvalue = [74, 320]"] ;
45 -> 55 ;
56 [label="amount <= 66.556\ngini = 0.475\nsamples = 54\nvalue = [33, 21]"] ;
55 -> 56 ;
57 [label="gini = 0.451\nsamples = 32\nvalue = [11, 21]"] ;
56 -> 57 ;
58 [label="gini = 0.0\nsamples = 22\nvalue = [22, 0]"] ;
56 -> 58 ;
59 [label="amount <= 67.773\ngini = 0.212\nsamples = 340\nvalue = [41, 299]"] ;
55 -> 59 ;
60 [label="currencycode <= 2.5\ngini = 0.173\nsamples = 313\nvalue = [30, 283]"] ;
59 -> 60 ;
61 [label="amount <= 67.071\ngini = 0.169\nsamples = 312\nvalue = [29, 283]"] ;
60 -> 61 ;
62 [label="amount <= 66.815\ngini = 0.048\nsamples = 121\nvalue = [3, 118]"] ;
61 -> 62 ;
63 [label="gini = 0.0\nsamples = 57\nvalue = [0, 57]"] ;
62 -> 63 ;
64 [label="amount <= 66.817\ngini = 0.089\nsamples = 64\nvalue = [3, 61]"] ;
62 -> 64 ;
65 [label="gini = 0.0\nsamples = 2\nvalue = [2, 0]"] ;
64 -> 65 ;
66 [label="amount <= 66.883\ngini = 0.032\nsamples = 62\nvalue = [1, 61]"] ;
64 -> 66 ;
67 [label="gini = 0.153\nsamples = 12\nvalue = [1, 11]"] ;
66 -> 67 ;
68 [label="gini = 0.0\nsamples = 50\nvalue = [0, 50]"] ;
66 -> 68 ;
69 [label="amount <= 67.074\ngini = 0.235\nsamples = 191\nvalue = [26, 165]"] ;
61 -> 69 ;
70 [label="gini = 0.0\nsamples = 2\nvalue = [2, 0]"] ;
69 -> 70 ;
71 [label="amount <= 67.459\ngini = 0.222\nsamples = 189\nvalue = [24, 165]"] ;
69 -> 71 ;
72 [label="amount <= 67.455\ngini = 0.309\nsamples = 110\nvalue = [21, 89]"] ;
71 -> 72 ;
73 [label="amount <= 67.204\ngini = 0.182\nsamples = 99\nvalue = [10, 89]"] ;
72 -> 73 ;
74 [label="gini = 0.381\nsamples = 39\nvalue = [10, 29]"] ;
73 -> 74 ;
75 [label="gini = 0.0\nsamples = 60\nvalue = [0, 60]"] ;
73 -> 75 ;
76 [label="gini = 0.0\nsamples = 11\nvalue = [11, 0]"] ;
72 -> 76 ;
77 [label="amount <= 67.59\ngini = 0.073\nsamples = 79\nvalue = [3, 76]"] ;
71 -> 77 ;
78 [label="gini = 0.139\nsamples = 40\nvalue = [3, 37]"] ;
77 -> 78 ;
79 [label="gini = 0.0\nsamples = 39\nvalue = [0, 39]"] ;
77 -> 79 ;
80 [label="gini = 0.0\nsamples = 1\nvalue = [1, 0]"] ;
60 -> 80 ;
81 [label="gini = 0.483\nsamples = 27\nvalue = [11, 16]"] ;
59 -> 81 ;
82 [label="gini = 0.0\nsamples = 11\nvalue = [11, 0]"] ;
40 -> 82 ;
83 [label="amount <= 67.965\ngini = 0.013\nsamples = 158\nvalue = [157, 1]"] ;
39 -> 83 ;
84 [label="gini = 0.18\nsamples = 10\nvalue = [9, 1]"] ;
83 -> 84 ;
85 [label="gini = 0.0\nsamples = 148\nvalue = [148, 0]"] ;
83 -> 85 ;
86 [label="txvariantcode <= 8.999\ngini = 0.334\nsamples = 4164\nvalue = [3280, 884]"] ;
8 -> 86 ;
87 [label="txvariantcode <= 4.016\ngini = 0.49\nsamples = 2023\nvalue = [1151, 872]"] ;
86 -> 87 ;
88 [label="amount <= 159.968\ngini = 0.348\nsamples = 1281\nvalue = [994, 287]"] ;
87 -> 88 ;
89 [label="amount <= 71.648\ngini = 0.009\nsamples = 685\nvalue = [682, 3]"] ;
88 -> 89 ;
90 [label="gini = 0.375\nsamples = 4\nvalue = [3, 1]"] ;
89 -> 90 ;
91 [label="amount <= 120.16\ngini = 0.006\nsamples = 681\nvalue = [679, 2]"] ;
89 -> 91 ;
92 [label="gini = 0.0\nsamples = 488\nvalue = [488, 0]"] ;
91 -> 92 ;
93 [label="amount <= 120.288\ngini = 0.021\nsamples = 193\nvalue = [191, 2]"] ;
91 -> 93 ;
94 [label="gini = 0.32\nsamples = 5\nvalue = [4, 1]"] ;
93 -> 94 ;
95 [label="amount <= 140.672\ngini = 0.011\nsamples = 188\nvalue = [187, 1]"] ;
93 -> 95 ;
96 [label="gini = 0.0\nsamples = 112\nvalue = [112, 0]"] ;
95 -> 96 ;
97 [label="amount <= 141.12\ngini = 0.026\nsamples = 76\nvalue = [75, 1]"] ;
95 -> 97 ;
98 [label="gini = 0.219\nsamples = 8\nvalue = [7, 1]"] ;
97 -> 98 ;
99 [label="gini = 0.0\nsamples = 68\nvalue = [68, 0]"] ;
97 -> 99 ;
100 [label="amount <= 166.396\ngini = 0.499\nsamples = 596\nvalue = [312, 284]"] ;
88 -> 100 ;
101 [label="currencycode <= 0.5\ngini = 0.066\nsamples = 293\nvalue = [10, 283]"] ;
100 -> 101 ;
102 [label="gini = 0.0\nsamples = 3\nvalue = [3, 0]"] ;
101 -> 102 ;
103 [label="txvariantcode <= 3.997\ngini = 0.047\nsamples = 290\nvalue = [7, 283]"] ;
101 -> 103 ;
104 [label="amount <= 166.292\ngini = 0.041\nsamples = 289\nvalue = [6, 283]"] ;
103 -> 104 ;
105 [label="amount <= 161.27\ngini = 0.035\nsamples = 279\nvalue = [5, 274]"] ;
104 -> 105 ;
106 [label="gini = 0.0\nsamples = 95\nvalue = [0, 95]"] ;
105 -> 106 ;
107 [label="amount <= 161.312\ngini = 0.053\nsamples = 184\nvalue = [5, 179]"] ;
105 -> 107 ;
108 [label="gini = 0.0\nsamples = 3\nvalue = [3, 0]"] ;
107 -> 108 ;
109 [label="amount <= 163.45\ngini = 0.022\nsamples = 181\nvalue = [2, 179]"] ;
107 -> 109 ;
110 [label="gini = 0.0\nsamples = 80\nvalue = [0, 80]"] ;
109 -> 110 ;
111 [label="amount <= 163.481\ngini = 0.039\nsamples = 101\nvalue = [2, 99]"] ;
109 -> 111 ;
112 [label="gini = 0.0\nsamples = 1\nvalue = [1, 0]"] ;
111 -> 112 ;
113 [label="amount <= 165.135\ngini = 0.02\nsamples = 100\nvalue = [1, 99]"] ;
111 -> 113 ;
114 [label="gini = 0.0\nsamples = 56\nvalue = [0, 56]"] ;
113 -> 114 ;
115 [label="gini = 0.044\nsamples = 44\nvalue = [1, 43]"] ;
113 -> 115 ;
116 [label="gini = 0.18\nsamples = 10\nvalue = [1, 9]"] ;
104 -> 116 ;
117 [label="gini = 0.0\nsamples = 1\nvalue = [1, 0]"] ;
103 -> 117 ;
118 [label="amount <= 166.432\ngini = 0.007\nsamples = 303\nvalue = [302, 1]"] ;
100 -> 118 ;
119 [label="gini = 0.278\nsamples = 6\nvalue = [5, 1]"] ;
118 -> 119 ;
120 [label="gini = 0.0\nsamples = 297\nvalue = [297, 0]"] ;
118 -> 120 ;
121 [label="amount <= 166.07\ngini = 0.334\nsamples = 742\nvalue = [157, 585]"] ;
87 -> 121 ;
122 [label="amount <= 160.235\ngini = 0.263\nsamples = 693\nvalue = [108, 585]"] ;
121 -> 122 ;
123 [label="txvariantcode <= 7.012\ngini = 0.443\nsamples = 320\nvalue = [106, 214]"] ;
122 -> 123 ;
124 [label="amount <= 85.12\ngini = 0.022\nsamples = 88\nvalue = [87, 1]"] ;
123 -> 124 ;
125 [label="gini = 0.087\nsamples = 22\nvalue = [21, 1]"] ;
124 -> 125 ;
126 [label="gini = 0.0\nsamples = 66\nvalue = [66, 0]"] ;
124 -> 126 ;
127 [label="amount <= 83.8\ngini = 0.15\nsamples = 232\nvalue = [19, 213]"] ;
123 -> 127 ;
128 [label="amount <= 78.658\ngini = 0.009\nsamples = 214\nvalue = [1, 213]"] ;
127 -> 128 ;
129 [label="gini = 0.0\nsamples = 1\nvalue = [1, 0]"] ;
128 -> 129 ;
130 [label="gini = 0.0\nsamples = 213\nvalue = [0, 213]"] ;
128 -> 130 ;
131 [label="gini = 0.0\nsamples = 18\nvalue = [18, 0]"] ;
127 -> 131 ;
132 [label="amount <= 160.644\ngini = 0.011\nsamples = 373\nvalue = [2, 371]"] ;
122 -> 132 ;
133 [label="gini = 0.117\nsamples = 16\nvalue = [1, 15]"] ;
132 -> 133 ;
134 [label="amount <= 164.604\ngini = 0.006\nsamples = 357\nvalue = [1, 356]"] ;
132 -> 134 ;
135 [label="gini = 0.0\nsamples = 295\nvalue = [0, 295]"] ;
134 -> 135 ;
136 [label="amount <= 164.608\ngini = 0.032\nsamples = 62\nvalue = [1, 61]"] ;
134 -> 136 ;
137 [label="gini = 0.0\nsamples = 1\nvalue = [1, 0]"] ;
136 -> 137 ;
138 [label="gini = 0.0\nsamples = 61\nvalue = [0, 61]"] ;
136 -> 138 ;
139 [label="gini = 0.0\nsamples = 49\nvalue = [49, 0]"] ;
121 -> 139 ;
140 [label="amount <= 290.24\ngini = 0.011\nsamples = 2141\nvalue = [2129, 12]"] ;
86 -> 140 ;
141 [label="amount <= 147.072\ngini = 0.007\nsamples = 2019\nvalue = [2012, 7]"] ;
140 -> 141 ;
142 [label="amount <= 96.128\ngini = 0.004\nsamples = 1476\nvalue = [1473, 3]"] ;
141 -> 142 ;
143 [label="amount <= 95.968\ngini = 0.008\nsamples = 763\nvalue = [760, 3]"] ;
142 -> 143 ;
144 [label="amount <= 81.786\ngini = 0.005\nsamples = 744\nvalue = [742, 2]"] ;
143 -> 144 ;
145 [label="gini = 0.0\nsamples = 333\nvalue = [333, 0]"] ;
144 -> 145 ;
146 [label="amount <= 81.888\ngini = 0.01\nsamples = 411\nvalue = [409, 2]"] ;
144 -> 146 ;
147 [label="gini = 0.105\nsamples = 18\nvalue = [17, 1]"] ;
146 -> 147 ;
148 [label="amount <= 88.128\ngini = 0.005\nsamples = 393\nvalue = [392, 1]"] ;
146 -> 148 ;
149 [label="gini = 0.0\nsamples = 217\nvalue = [217, 0]"] ;
148 -> 149 ;
150 [label="amount <= 88.269\ngini = 0.011\nsamples = 176\nvalue = [175, 1]"] ;
148 -> 150 ;
151 [label="gini = 0.142\nsamples = 13\nvalue = [12, 1]"] ;
150 -> 151 ;
152 [label="gini = 0.0\nsamples = 163\nvalue = [163, 0]"] ;
150 -> 152 ;
153 [label="gini = 0.1\nsamples = 19\nvalue = [18, 1]"] ;
143 -> 153 ;
154 [label="gini = 0.0\nsamples = 713\nvalue = [713, 0]"] ;
142 -> 154 ;
155 [label="amount <= 147.264\ngini = 0.015\nsamples = 543\nvalue = [539, 4]"] ;
141 -> 155 ;
156 [label="gini = 0.245\nsamples = 7\nvalue = [6, 1]"] ;
155 -> 156 ;
157 [label="amount <= 188.544\ngini = 0.011\nsamples = 536\nvalue = [533, 3]"] ;
155 -> 157 ;
158 [label="amount <= 187.968\ngini = 0.021\nsamples = 282\nvalue = [279, 3]"] ;
157 -> 158 ;
159 [label="amount <= 162.176\ngini = 0.014\nsamples = 280\nvalue = [278, 2]"] ;
158 -> 159 ;
160 [label="gini = 0.0\nsamples = 107\nvalue = [107, 0]"] ;
159 -> 160 ;
161 [label="amount <= 162.688\ngini = 0.023\nsamples = 173\nvalue = [171, 2]"] ;
159 -> 161 ;
162 [label="gini = 0.219\nsamples = 8\nvalue = [7, 1]"] ;
161 -> 162 ;
163 [label="amount <= 171.584\ngini = 0.012\nsamples = 165\nvalue = [164, 1]"] ;
161 -> 163 ;
164 [label="amount <= 171.2\ngini = 0.025\nsamples = 78\nvalue = [77, 1]"] ;
163 -> 164 ;
165 [label="gini = 0.0\nsamples = 73\nvalue = [73, 0]"] ;
164 -> 165 ;
166 [label="gini = 0.32\nsamples = 5\nvalue = [4, 1]"] ;
164 -> 166 ;
167 [label="gini = 0.0\nsamples = 87\nvalue = [87, 0]"] ;
163 -> 167 ;
168 [label="gini = 0.5\nsamples = 2\nvalue = [1, 1]"] ;
158 -> 168 ;
169 [label="gini = 0.0\nsamples = 254\nvalue = [254, 0]"] ;
157 -> 169 ;
170 [label="amount <= 290.67\ngini = 0.079\nsamples = 122\nvalue = [117, 5]"] ;
140 -> 170 ;
171 [label="gini = 0.0\nsamples = 1\nvalue = [0, 1]"] ;
170 -> 171 ;
172 [label="amount <= 437.299\ngini = 0.064\nsamples = 121\nvalue = [117, 4]"] ;
170 -> 172 ;
173 [label="amount <= 433.92\ngini = 0.1\nsamples = 76\nvalue = [72, 4]"] ;
172 -> 173 ;
174 [label="amount <= 365.184\ngini = 0.077\nsamples = 75\nvalue = [72, 3]"] ;
173 -> 174 ;
175 [label="amount <= 364.138\ngini = 0.109\nsamples = 52\nvalue = [49, 3]"] ;
174 -> 175 ;
176 [label="amount <= 337.888\ngini = 0.077\nsamples = 50\nvalue = [48, 2]"] ;
175 -> 176 ;
177 [label="gini = 0.051\nsamples = 38\nvalue = [37, 1]"] ;
176 -> 177 ;
178 [label="gini = 0.153\nsamples = 12\nvalue = [11, 1]"] ;
176 -> 178 ;
179 [label="gini = 0.5\nsamples = 2\nvalue = [1, 1]"] ;
175 -> 179 ;
180 [label="gini = 0.0\nsamples = 23\nvalue = [23, 0]"] ;
174 -> 180 ;
181 [label="gini = 0.0\nsamples = 1\nvalue = [0, 1]"] ;
173 -> 181 ;
182 [label="gini = 0.0\nsamples = 45\nvalue = [45, 0]"] ;
172 -> 182 ;
183 [label="currencycode <= 0.0\ngini = 0.242\nsamples = 234871\nvalue = [33019, 201852]"] ;
1 -> 183 ;
184 [label="amount <= 99.495\ngini = 0.43\nsamples = 63676\nvalue = [19965, 43711]"] ;
183 -> 184 ;
185 [label="amount <= 79.227\ngini = 0.064\nsamples = 14572\nvalue = [14092, 480]"] ;
184 -> 185 ;
186 [label="txvariantcode <= 11.5\ngini = 0.001\nsamples = 10639\nvalue = [10632, 7]"] ;
185 -> 186 ;
187 [label="txvariantcode <= 9.5\ngini = 0.001\nsamples = 10554\nvalue = [10548, 6]"] ;
186 -> 187 ;
188 [label="txvariantcode <= 3.5\ngini = 0.001\nsamples = 9553\nvalue = [9549, 4]"] ;
187 -> 188 ;
189 [label="amount <= 52.427\ngini = 0.001\nsamples = 5650\nvalue = [5646, 4]"] ;
188 -> 189 ;
190 [label="amount <= 25.962\ngini = 0.001\nsamples = 2812\nvalue = [2811, 1]"] ;
189 -> 190 ;
191 [label="amount <= 25.711\ngini = 0.002\nsamples = 916\nvalue = [915, 1]"] ;
190 -> 191 ;
192 [label="gini = 0.0\nsamples = 819\nvalue = [819, 0]"] ;
191 -> 192 ;
193 [label="gini = 0.02\nsamples = 97\nvalue = [96, 1]"] ;
191 -> 193 ;
194 [label="gini = 0.0\nsamples = 1896\nvalue = [1896, 0]"] ;
190 -> 194 ;
195 [label="amount <= 59.463\ngini = 0.002\nsamples = 2838\nvalue = [2835, 3]"] ;
189 -> 195 ;
196 [label="amount <= 59.127\ngini = 0.005\nsamples = 799\nvalue = [797, 2]"] ;
195 -> 196 ;
197 [label="amount <= 52.763\ngini = 0.003\nsamples = 577\nvalue = [576, 1]"] ;
196 -> 197 ;
198 [label="gini = 0.007\nsamples = 269\nvalue = [268, 1]"] ;
197 -> 198 ;
199 [label="gini = 0.0\nsamples = 308\nvalue = [308, 0]"] ;
197 -> 199 ;
200 [label="gini = 0.009\nsamples = 222\nvalue = [221, 1]"] ;
196 -> 200 ;
201 [label="amount <= 72.611\ngini = 0.001\nsamples = 2039\nvalue = [2038, 1]"] ;
195 -> 201 ;
202 [label="gini = 0.0\nsamples = 923\nvalue = [923, 0]"] ;
201 -> 202 ;
203 [label="amount <= 72.863\ngini = 0.002\nsamples = 1116\nvalue = [1115, 1]"] ;
201 -> 203 ;
204 [label="gini = 0.006\nsamples = 350\nvalue = [349, 1]"] ;
203 -> 204 ;
205 [label="gini = 0.0\nsamples = 766\nvalue = [766, 0]"] ;
203 -> 205 ;
206 [label="gini = 0.0\nsamples = 3903\nvalue = [3903, 0]"] ;
188 -> 206 ;
207 [label="amount <= 52.427\ngini = 0.004\nsamples = 1001\nvalue = [999, 2]"] ;
187 -> 207 ;
208 [label="gini = 0.0\nsamples = 503\nvalue = [503, 0]"] ;
207 -> 208 ;
209 [label="amount <= 52.763\ngini = 0.008\nsamples = 498\nvalue = [496, 2]"] ;
207 -> 209 ;
210 [label="gini = 0.044\nsamples = 44\nvalue = [43, 1]"] ;
209 -> 210 ;
211 [label="amount <= 72.527\ngini = 0.004\nsamples = 454\nvalue = [453, 1]"] ;
209 -> 211 ;
212 [label="gini = 0.0\nsamples = 272\nvalue = [272, 0]"] ;
211 -> 212 ;
213 [label="amount <= 72.863\ngini = 0.011\nsamples = 182\nvalue = [181, 1]"] ;
211 -> 213 ;
214 [label="txvariantcode <= 10.5\ngini = 0.03\nsamples = 65\nvalue = [64, 1]"] ;
213 -> 214 ;
215 [label="gini = 0.0\nsamples = 16\nvalue = [16, 0]"] ;
214 -> 215 ;
216 [label="gini = 0.04\nsamples = 49\nvalue = [48, 1]"] ;
214 -> 216 ;
217 [label="gini = 0.0\nsamples = 117\nvalue = [117, 0]"] ;
213 -> 217 ;
218 [label="txvariantcode <= 12.5\ngini = 0.023\nsamples = 85\nvalue = [84, 1]"] ;
186 -> 218 ;
219 [label="gini = 0.32\nsamples = 5\nvalue = [4, 1]"] ;
218 -> 219 ;
220 [label="gini = 0.0\nsamples = 80\nvalue = [80, 0]"] ;
218 -> 220 ;
221 [label="amount <= 79.563\ngini = 0.212\nsamples = 3933\nvalue = [3460, 473]"] ;
185 -> 221 ;
222 [label="txvariantcode <= 3.5\ngini = 0.428\nsamples = 679\nvalue = [211, 468]"] ;
221 -> 222 ;
223 [label="gini = 0.294\nsamples = 570\nvalue = [102, 468]"] ;
222 -> 223 ;
224 [label="gini = 0.0\nsamples = 109\nvalue = [109, 0]"] ;
222 -> 224 ;
225 [label="amount <= 99.327\ngini = 0.003\nsamples = 3254\nvalue = [3249, 5]"] ;
221 -> 225 ;
226 [label="txvariantcode <= 10.5\ngini = 0.003\nsamples = 3101\nvalue = [3097, 4]"] ;
225 -> 226 ;
227 [label="amount <= 85.592\ngini = 0.002\nsamples = 2841\nvalue = [2838, 3]"] ;
226 -> 227 ;
228 [label="amount <= 82.661\ngini = 0.006\nsamples = 705\nvalue = [703, 2]"] ;
227 -> 228 ;
229 [label="gini = 0.0\nsamples = 503\nvalue = [503, 0]"] ;
228 -> 229 ;
230 [label="amount <= 82.829\ngini = 0.02\nsamples = 202\nvalue = [200, 2]"] ;
228 -> 230 ;
231 [label="gini = 0.062\nsamples = 31\nvalue = [30, 1]"] ;
230 -> 231 ;
232 [label="txvariantcode <= 3.5\ngini = 0.012\nsamples = 171\nvalue = [170, 1]"] ;
230 -> 232 ;
233 [label="amount <= 85.257\ngini = 0.02\nsamples = 101\nvalue = [100, 1]"] ;
232 -> 233 ;
234 [label="gini = 0.0\nsamples = 37\nvalue = [37, 0]"] ;
233 -> 234 ;
235 [label="gini = 0.031\nsamples = 64\nvalue = [63, 1]"] ;
233 -> 235 ;
236 [label="gini = 0.0\nsamples = 70\nvalue = [70, 0]"] ;
232 -> 236 ;
237 [label="amount <= 92.661\ngini = 0.001\nsamples = 2136\nvalue = [2135, 1]"] ;
227 -> 237 ;
238 [label="gini = 0.0\nsamples = 1691\nvalue = [1691, 0]"] ;
237 -> 238 ;
239 [label="amount <= 92.962\ngini = 0.004\nsamples = 445\nvalue = [444, 1]"] ;
237 -> 239 ;
240 [label="txvariantcode <= 3.5\ngini = 0.01\nsamples = 192\nvalue = [191, 1]"] ;
239 -> 240 ;
241 [label="gini = 0.019\nsamples = 106\nvalue = [105, 1]"] ;
240 -> 241 ;
242 [label="gini = 0.0\nsamples = 86\nvalue = [86, 0]"] ;
240 -> 242 ;
243 [label="gini = 0.0\nsamples = 253\nvalue = [253, 0]"] ;
239 -> 243 ;
244 [label="amount <= 85.76\ngini = 0.008\nsamples = 260\nvalue = [259, 1]"] ;
226 -> 244 ;
245 [label="gini = 0.0\nsamples = 70\nvalue = [70, 0]"] ;
244 -> 245 ;
246 [label="amount <= 86.262\ngini = 0.01\nsamples = 190\nvalue = [189, 1]"] ;
244 -> 246 ;
247 [label="txvariantcode <= 11.5\ngini = 0.016\nsamples = 124\nvalue = [123, 1]"] ;
246 -> 247 ;
248 [label="gini = 0.017\nsamples = 118\nvalue = [117, 1]"] ;
247 -> 248 ;
249 [label="gini = 0.0\nsamples = 6\nvalue = [6, 0]"] ;
247 -> 249 ;
250 [label="gini = 0.0\nsamples = 66\nvalue = [66, 0]"] ;
246 -> 250 ;
251 [label="txvariantcode <= 4.0\ngini = 0.013\nsamples = 153\nvalue = [152, 1]"] ;
225 -> 251 ;
252 [label="cardverificationcodesupplied <= 1.5\ngini = 0.024\nsamples = 84\nvalue = [83, 1]"] ;
251 -> 252 ;
253 [label="gini = 0.024\nsamples = 83\nvalue = [82, 1]"] ;
252 -> 253 ;
254 [label="gini = 0.0\nsamples = 1\nvalue = [1, 0]"] ;
252 -> 254 ;
255 [label="gini = 0.0\nsamples = 69\nvalue = [69, 0]"] ;
251 -> 255 ;
256 [label="amount <= 167.165\ngini = 0.211\nsamples = 49104\nvalue = [5873, 43231]"] ;
184 -> 256 ;
257 [label="txvariantcode <= 7.0\ngini = 0.452\nsamples = 13843\nvalue = [4769, 9074]"] ;
256 -> 257 ;
258 [label="txvariantcode <= 3.0\ngini = 0.375\nsamples = 10959\nvalue = [2744, 8215]"] ;
257 -> 258 ;
259 [label="amount <= 102.508\ngini = 0.415\nsamples = 9053\nvalue = [2665, 6388]"] ;
258 -> 259 ;
260 [label="amount <= 100.499\ngini = 0.175\nsamples = 2527\nvalue = [245, 2282]"] ;
259 -> 260 ;
261 [label="amount <= 99.663\ngini = 0.013\nsamples = 941\nvalue = [6, 935]"] ;
260 -> 261 ;
262 [label="amount <= 99.662\ngini = 0.04\nsamples = 147\nvalue = [3, 144]"] ;
261 -> 262 ;
263 [label="gini = 0.0\nsamples = 144\nvalue = [0, 144]"] ;
262 -> 263 ;
264 [label="gini = 0.0\nsamples = 3\nvalue = [3, 0]"] ;
262 -> 264 ;
265 [label="amount <= 100.165\ngini = 0.008\nsamples = 794\nvalue = [3, 791]"] ;
261 -> 265 ;
266 [label="amount <= 100.165\ngini = 0.013\nsamples = 454\nvalue = [3, 451]"] ;
265 -> 266 ;
267 [label="amount <= 99.831\ngini = 0.004\nsamples = 451\nvalue = [1, 450]"] ;
266 -> 267 ;
268 [label="amount <= 99.83\ngini = 0.014\nsamples = 137\nvalue = [1, 136]"] ;
267 -> 268 ;
269 [label="gini = 0.0\nsamples = 136\nvalue = [0, 136]"] ;
268 -> 269 ;
270 [label="gini = 0.0\nsamples = 1\nvalue = [1, 0]"] ;
268 -> 270 ;
271 [label="gini = 0.0\nsamples = 314\nvalue = [0, 314]"] ;
267 -> 271 ;
272 [label="gini = 0.444\nsamples = 3\nvalue = [2, 1]"] ;
266 -> 272 ;
273 [label="gini = 0.0\nsamples = 340\nvalue = [0, 340]"] ;
265 -> 273 ;
274 [label="amount <= 100.501\ngini = 0.256\nsamples = 1586\nvalue = [239, 1347]"] ;
260 -> 274 ;
275 [label="gini = 0.422\nsamples = 642\nvalue = [194, 448]"] ;
274 -> 275 ;
276 [label="amount <= 100.834\ngini = 0.091\nsamples = 944\nvalue = [45, 899]"] ;
274 -> 276 ;
277 [label="gini = 0.0\nsamples = 150\nvalue = [0, 150]"] ;
276 -> 277 ;
278 [label="amount <= 100.836\ngini = 0.107\nsamples = 794\nvalue = [45, 749]"] ;
276 -> 278 ;
279 [label="gini = 0.0\nsamples = 5\nvalue = [5, 0]"] ;
278 -> 279 ;
280 [label="amount <= 102.178\ngini = 0.096\nsamples = 789\nvalue = [40, 749]"] ;
278 -> 280 ;
281 [label="amount <= 102.174\ngini = 0.115\nsamples = 652\nvalue = [40, 612]"] ;
280 -> 281 ;
282 [label="amount <= 101.842\ngini = 0.097\nsamples = 645\nvalue = [33, 612]"] ;
281 -> 282 ;
283 [label="amount <= 101.839\ngini = 0.126\nsamples = 490\nvalue = [33, 457]"] ;
282 -> 283 ;
284 [label="amount <= 101.505\ngini = 0.08\nsamples = 477\nvalue = [20, 457]"] ;
283 -> 284 ;
285 [label="amount <= 101.505\ngini = 0.115\nsamples = 328\nvalue = [20, 308]"] ;
284 -> 285 ;
286 [label="amount <= 101.17\ngini = 0.072\nsamples = 320\nvalue = [12, 308]"] ;
285 -> 286 ;
287 [label="amount <= 101.002\ngini = 0.026\nsamples = 150\nvalue = [2, 148]"] ;
286 -> 287 ;
288 [label="gini = 0.0\nsamples = 77\nvalue = [0, 77]"] ;
287 -> 288 ;
289 [label="amount <= 101.003\ngini = 0.053\nsamples = 73\nvalue = [2, 71]"] ;
287 -> 289 ;
290 [label="gini = 0.0\nsamples = 2\nvalue = [2, 0]"] ;
289 -> 290 ;
291 [label="gini = 0.0\nsamples = 71\nvalue = [0, 71]"] ;
289 -> 291 ;
292 [label="amount <= 101.172\ngini = 0.111\nsamples = 170\nvalue = [10, 160]"] ;
286 -> 292 ;
293 [label="gini = 0.0\nsamples = 6\nvalue = [6, 0]"] ;
292 -> 293 ;
294 [label="amount <= 101.333\ngini = 0.048\nsamples = 164\nvalue = [4, 160]"] ;
292 -> 294 ;
295 [label="gini = 0.0\nsamples = 85\nvalue = [0, 85]"] ;
294 -> 295 ;
296 [label="amount <= 101.338\ngini = 0.096\nsamples = 79\nvalue = [4, 75]"] ;
294 -> 296 ;
297 [label="gini = 0.0\nsamples = 2\nvalue = [2, 0]"] ;
296 -> 297 ;
298 [label="amount <= 101.371\ngini = 0.051\nsamples = 77\nvalue = [2, 75]"] ;
296 -> 298 ;
299 [label="gini = 0.198\nsamples = 18\nvalue = [2, 16]"] ;
298 -> 299 ;
300 [label="gini = 0.0\nsamples = 59\nvalue = [0, 59]"] ;
298 -> 300 ;
301 [label="gini = 0.0\nsamples = 8\nvalue = [8, 0]"] ;
285 -> 301 ;
302 [label="gini = 0.0\nsamples = 149\nvalue = [0, 149]"] ;
284 -> 302 ;
303 [label="gini = 0.0\nsamples = 13\nvalue = [13, 0]"] ;
283 -> 303 ;
304 [label="gini = 0.0\nsamples = 155\nvalue = [0, 155]"] ;
282 -> 304 ;
305 [label="gini = 0.0\nsamples = 7\nvalue = [7, 0]"] ;
281 -> 305 ;
306 [label="gini = 0.0\nsamples = 137\nvalue = [0, 137]"] ;
280 -> 306 ;
307 [label="amount <= 133.916\ngini = 0.467\nsamples = 6526\nvalue = [2420, 4106]"] ;
259 -> 307 ;
308 [label="amount <= 113.845\ngini = 0.451\nsamples = 2475\nvalue = [1625, 850]"] ;
307 -> 308 ;
309 [label="amount <= 107.133\ngini = 0.5\nsamples = 1687\nvalue = [839, 848]"] ;
308 -> 309 ;
310 [label="amount <= 102.843\ngini = 0.367\nsamples = 542\nvalue = [411, 131]"] ;
309 -> 310 ;
311 [label="amount <= 102.51\ngini = 0.498\nsamples = 276\nvalue = [146, 130]"] ;
310 -> 311 ;
312 [label="gini = 0.0\nsamples = 146\nvalue = [146, 0]"] ;
311 -> 312 ;
313 [label="gini = 0.0\nsamples = 130\nvalue = [0, 130]"] ;
311 -> 313 ;
314 [label="amount <= 102.929\ngini = 0.007\nsamples = 266\nvalue = [265, 1]"] ;
310 -> 314 ;
315 [label="gini = 0.165\nsamples = 11\nvalue = [10, 1]"] ;
314 -> 315 ;
316 [label="gini = 0.0\nsamples = 255\nvalue = [255, 0]"] ;
314 -> 316 ;
317 [label="amount <= 107.857\ngini = 0.468\nsamples = 1145\nvalue = [428, 717]"] ;
309 -> 317 ;
318 [label="amount <= 107.2\ngini = 0.383\nsamples = 687\nvalue = [177, 510]"] ;
317 -> 318 ;
319 [label="gini = 0.392\nsamples = 651\nvalue = [174, 477]"] ;
318 -> 319 ;
320 [label="gini = 0.153\nsamples = 36\nvalue = [3, 33]"] ;
318 -> 320 ;
321 [label="amount <= 108.212\ngini = 0.495\nsamples = 458\nvalue = [251, 207]"] ;
317 -> 321 ;
322 [label="amount <= 108.172\ngini = 0.286\nsamples = 81\nvalue = [67, 14]"] ;
321 -> 322 ;
323 [label="gini = 0.495\nsamples = 31\nvalue = [17, 14]"] ;
322 -> 323 ;
324 [label="gini = 0.0\nsamples = 50\nvalue = [50, 0]"] ;
322 -> 324 ;
325 [label="amount <= 110.546\ngini = 0.5\nsamples = 377\nvalue = [184, 193]"] ;
321 -> 325 ;
326 [label="amount <= 108.559\ngini = 0.443\nsamples = 133\nvalue = [44, 89]"] ;
325 -> 326 ;
327 [label="gini = 0.469\nsamples = 24\nvalue = [15, 9]"] ;
326 -> 327 ;
328 [label="amount <= 109.198\ngini = 0.391\nsamples = 109\nvalue = [29, 80]"] ;
326 -> 328 ;
329 [label="gini = 0.137\nsamples = 27\nvalue = [2, 25]"] ;
328 -> 329 ;
330 [label="amount <= 109.211\ngini = 0.442\nsamples = 82\nvalue = [27, 55]"] ;
328 -> 330 ;
331 [label="gini = 0.0\nsamples = 10\nvalue = [10, 0]"] ;
330 -> 331 ;
332 [label="amount <= 110.362\ngini = 0.361\nsamples = 72\nvalue = [17, 55]"] ;
330 -> 332 ;
333 [label="amount <= 110.206\ngini = 0.398\nsamples = 62\nvalue = [17, 45]"] ;
332 -> 333 ;
334 [label="amount <= 109.895\ngini = 0.334\nsamples = 52\nvalue = [11, 41]"] ;
333 -> 334 ;
335 [label="gini = 0.411\nsamples = 38\nvalue = [11, 27]"] ;
334 -> 335 ;
336 [label="gini = 0.0\nsamples = 14\nvalue = [0, 14]"] ;
334 -> 336 ;
337 [label="gini = 0.48\nsamples = 10\nvalue = [6, 4]"] ;
333 -> 337 ;
338 [label="gini = 0.0\nsamples = 10\nvalue = [0, 10]"] ;
332 -> 338 ;
339 [label="amount <= 110.602\ngini = 0.489\nsamples = 244\nvalue = [140, 104]"] ;
325 -> 339 ;
340 [label="gini = 0.0\nsamples = 32\nvalue = [32, 0]"] ;
339 -> 340 ;
341 [label="amount <= 112.564\ngini = 0.5\nsamples = 212\nvalue = [108, 104]"] ;
339 -> 341 ;
342 [label="amount <= 112.557\ngini = 0.483\nsamples = 147\nvalue = [87, 60]"] ;
341 -> 342 ;
343 [label="amount <= 111.222\ngini = 0.478\nsamples = 99\nvalue = [39, 60]"] ;
342 -> 343 ;
344 [label="gini = 0.496\nsamples = 44\nvalue = [24, 20]"] ;
343 -> 344 ;
345 [label="amount <= 111.535\ngini = 0.397\nsamples = 55\nvalue = [15, 40]"] ;
343 -> 345 ;
346 [label="gini = 0.0\nsamples = 10\nvalue = [0, 10]"] ;
345 -> 346 ;
347 [label="gini = 0.444\nsamples = 45\nvalue = [15, 30]"] ;
345 -> 347 ;
348 [label="gini = 0.0\nsamples = 48\nvalue = [48, 0]"] ;
342 -> 348 ;
349 [label="amount <= 113.565\ngini = 0.437\nsamples = 65\nvalue = [21, 44]"] ;
341 -> 349 ;
350 [label="amount <= 113.217\ngini = 0.475\nsamples = 54\nvalue = [21, 33]"] ;
349 -> 350 ;
351 [label="gini = 0.298\nsamples = 33\nvalue = [6, 27]"] ;
350 -> 351 ;
352 [label="gini = 0.408\nsamples = 21\nvalue = [15, 6]"] ;
350 -> 352 ;
353 [label="gini = 0.0\nsamples = 11\nvalue = [0, 11]"] ;
349 -> 353 ;
354 [label="amount <= 124.034\ngini = 0.005\nsamples = 788\nvalue = [786, 2]"] ;
308 -> 354 ;
355 [label="amount <= 123.783\ngini = 0.008\nsamples = 470\nvalue = [468, 2]"] ;
354 -> 355 ;
356 [label="amount <= 114.068\ngini = 0.004\nsamples = 459\nvalue = [458, 1]"] ;
355 -> 356 ;
357 [label="gini = 0.012\nsamples = 163\nvalue = [162, 1]"] ;
356 -> 357 ;
358 [label="gini = 0.0\nsamples = 296\nvalue = [296, 0]"] ;
356 -> 358 ;
359 [label="gini = 0.165\nsamples = 11\nvalue = [10, 1]"] ;
355 -> 359 ;
360 [label="gini = 0.0\nsamples = 318\nvalue = [318, 0]"] ;
354 -> 360 ;
361 [label="amount <= 134.335\ngini = 0.315\nsamples = 4051\nvalue = [795, 3256]"] ;
307 -> 361 ;
362 [label="cardverificationcodesupplied <= 1.5\ngini = 0.052\nsamples = 2868\nvalue = [76, 2792]"] ;
361 -> 362 ;
363 [label="gini = 0.051\nsamples = 2867\nvalue = [75, 2792]"] ;
362 -> 363 ;
364 [label="gini = 0.0\nsamples = 1\nvalue = [1, 0]"] ;
362 -> 364 ;
365 [label="amount <= 154.77\ngini = 0.477\nsamples = 1183\nvalue = [719, 464]"] ;
361 -> 365 ;
366 [label="amount <= 154.603\ngini = 0.008\nsamples = 508\nvalue = [506, 2]"] ;
365 -> 366 ;
367 [label="amount <= 140.784\ngini = 0.004\nsamples = 504\nvalue = [503, 1]"] ;
366 -> 367 ;
368 [label="amount <= 140.449\ngini = 0.008\nsamples = 239\nvalue = [238, 1]"] ;
367 -> 368 ;
369 [label="gini = 0.0\nsamples = 198\nvalue = [198, 0]"] ;
368 -> 369 ;
370 [label="gini = 0.048\nsamples = 41\nvalue = [40, 1]"] ;
368 -> 370 ;
371 [label="gini = 0.0\nsamples = 265\nvalue = [265, 0]"] ;
367 -> 371 ;
372 [label="gini = 0.375\nsamples = 4\nvalue = [3, 1]"] ;
366 -> 372 ;
373 [label="amount <= 160.791\ngini = 0.432\nsamples = 675\nvalue = [213, 462]"] ;
365 -> 373 ;
374 [label="amount <= 159.457\ngini = 0.159\nsamples = 505\nvalue = [44, 461]"] ;
373 -> 374 ;
375 [label="amount <= 156.106\ngini = 0.113\nsamples = 383\nvalue = [23, 360]"] ;
374 -> 375 ;
376 [label="amount <= 155.453\ngini = 0.038\nsamples = 104\nvalue = [2, 102]"] ;
375 -> 376 ;
377 [label="amount <= 155.44\ngini = 0.074\nsamples = 52\nvalue = [2, 50]"] ;
376 -> 377 ;
378 [label="amount <= 155.103\ngini = 0.038\nsamples = 51\nvalue = [1, 50]"] ;
377 -> 378 ;
379 [label="gini = 0.0\nsamples = 32\nvalue = [0, 32]"] ;
378 -> 379 ;
380 [label="gini = 0.1\nsamples = 19\nvalue = [1, 18]"] ;
378 -> 380 ;
381 [label="gini = 0.0\nsamples = 1\nvalue = [1, 0]"] ;
377 -> 381 ;
382 [label="gini = 0.0\nsamples = 52\nvalue = [0, 52]"] ;
376 -> 382 ;
383 [label="amount <= 156.15\ngini = 0.139\nsamples = 279\nvalue = [21, 258]"] ;
375 -> 383 ;
384 [label="gini = 0.0\nsamples = 2\nvalue = [2, 0]"] ;
383 -> 384 ;
385 [label="amount <= 157.452\ngini = 0.128\nsamples = 277\nvalue = [19, 258]"] ;
383 -> 385 ;
386 [label="amount <= 157.441\ngini = 0.181\nsamples = 119\nvalue = [12, 107]"] ;
385 -> 386 ;
387 [label="amount <= 156.782\ngini = 0.129\nsamples = 115\nvalue = [8, 107]"] ;
386 -> 387 ;
388 [label="amount <= 156.776\ngini = 0.209\nsamples = 59\nvalue = [7, 52]"] ;
387 -> 388 ;
389 [label="amount <= 156.611\ngini = 0.133\nsamples = 56\nvalue = [4, 52]"] ;
388 -> 389 ;
390 [label="gini = 0.05\nsamples = 39\nvalue = [1, 38]"] ;
389 -> 390 ;
391 [label="gini = 0.291\nsamples = 17\nvalue = [3, 14]"] ;
389 -> 391 ;
392 [label="gini = 0.0\nsamples = 3\nvalue = [3, 0]"] ;
388 -> 392 ;
393 [label="amount <= 157.116\ngini = 0.035\nsamples = 56\nvalue = [1, 55]"] ;
387 -> 393 ;
394 [label="gini = 0.074\nsamples = 26\nvalue = [1, 25]"] ;
393 -> 394 ;
395 [label="gini = 0.0\nsamples = 30\nvalue = [0, 30]"] ;
393 -> 395 ;
396 [label="gini = 0.0\nsamples = 4\nvalue = [4, 0]"] ;
386 -> 396 ;
397 [label="amount <= 158.445\ngini = 0.085\nsamples = 158\nvalue = [7, 151]"] ;
385 -> 397 ;
398 [label="amount <= 157.98\ngini = 0.028\nsamples = 70\nvalue = [1, 69]"] ;
397 -> 398 ;
399 [label="gini = 0.057\nsamples = 34\nvalue = [1, 33]"] ;
398 -> 399 ;
400 [label="gini = 0.0\nsamples = 36\nvalue = [0, 36]"] ;
398 -> 400 ;
401 [label="amount <= 158.461\ngini = 0.127\nsamples = 88\nvalue = [6, 82]"] ;
397 -> 401 ;
402 [label="gini = 0.0\nsamples = 2\nvalue = [2, 0]"] ;
401 -> 402 ;
403 [label="amount <= 158.892\ngini = 0.089\nsamples = 86\nvalue = [4, 82]"] ;
401 -> 403 ;
404 [label="gini = 0.161\nsamples = 34\nvalue = [3, 31]"] ;
403 -> 404 ;
405 [label="amount <= 159.131\ngini = 0.038\nsamples = 52\nvalue = [1, 51]"] ;
403 -> 405 ;
406 [label="gini = 0.077\nsamples = 25\nvalue = [1, 24]"] ;
405 -> 406 ;
407 [label="gini = 0.0\nsamples = 27\nvalue = [0, 27]"] ;
405 -> 407 ;
408 [label="amount <= 159.464\ngini = 0.285\nsamples = 122\nvalue = [21, 101]"] ;
374 -> 408 ;
409 [label="gini = 0.0\nsamples = 17\nvalue = [17, 0]"] ;
408 -> 409 ;
410 [label="amount <= 160.129\ngini = 0.073\nsamples = 105\nvalue = [4, 101]"] ;
408 -> 410 ;
411 [label="gini = 0.0\nsamples = 53\nvalue = [0, 53]"] ;
410 -> 411 ;
412 [label="amount <= 160.135\ngini = 0.142\nsamples = 52\nvalue = [4, 48]"] ;
410 -> 412 ;
413 [label="gini = 0.0\nsamples = 2\nvalue = [2, 0]"] ;
412 -> 413 ;
414 [label="amount <= 160.306\ngini = 0.077\nsamples = 50\nvalue = [2, 48]"] ;
412 -> 414 ;
415 [label="gini = 0.219\nsamples = 16\nvalue = [2, 14]"] ;
414 -> 415 ;
416 [label="gini = 0.0\nsamples = 34\nvalue = [0, 34]"] ;
414 -> 416 ;
417 [label="amount <= 160.967\ngini = 0.012\nsamples = 170\nvalue = [169, 1]"] ;
373 -> 417 ;
418 [label="cardverificationcodesupplied <= 1.5\ngini = 0.016\nsamples = 125\nvalue = [124, 1]"] ;
417 -> 418 ;
419 [label="gini = 0.016\nsamples = 124\nvalue = [123, 1]"] ;
418 -> 419 ;
420 [label="gini = 0.0\nsamples = 1\nvalue = [1, 0]"] ;
418 -> 420 ;
421 [label="gini = 0.0\nsamples = 45\nvalue = [45, 0]"] ;
417 -> 421 ;
422 [label="amount <= 105.86\ngini = 0.079\nsamples = 1906\nvalue = [79, 1827]"] ;
258 -> 422 ;
423 [label="gini = 0.0\nsamples = 23\nvalue = [23, 0]"] ;
422 -> 423 ;
424 [label="txvariantcode <= 5.0\ngini = 0.058\nsamples = 1883\nvalue = [56, 1827]"] ;
422 -> 424 ;
425 [label="txvariantcode <= 3.997\ngini = 0.015\nsamples = 1499\nvalue = [11, 1488]"] ;
424 -> 425 ;
426 [label="gini = 0.0\nsamples = 746\nvalue = [0, 746]"] ;
425 -> 426 ;
427 [label="txvariantcode <= 4.0\ngini = 0.029\nsamples = 753\nvalue = [11, 742]"] ;
425 -> 427 ;
428 [label="gini = 0.0\nsamples = 11\nvalue = [11, 0]"] ;
427 -> 428 ;
429 [label="gini = 0.0\nsamples = 742\nvalue = [0, 742]"] ;
427 -> 429 ;
430 [label="txvariantcode <= 5.0\ngini = 0.207\nsamples = 384\nvalue = [45, 339]"] ;
424 -> 430 ;
431 [label="gini = 0.142\nsamples = 26\nvalue = [24, 2]"] ;
430 -> 431 ;
432 [label="amount <= 150.75\ngini = 0.11\nsamples = 358\nvalue = [21, 337]"] ;
430 -> 432 ;
433 [label="txvariantcode <= 6.0\ngini = 0.101\nsamples = 356\nvalue = [19, 337]"] ;
432 -> 433 ;
434 [label="gini = 0.0\nsamples = 196\nvalue = [0, 196]"] ;
433 -> 434 ;
435 [label="txvariantcode <= 6.007\ngini = 0.209\nsamples = 160\nvalue = [19, 141]"] ;
433 -> 435 ;
436 [label="gini = 0.095\nsamples = 20\nvalue = [19, 1]"] ;
435 -> 436 ;
437 [label="gini = 0.0\nsamples = 140\nvalue = [0, 140]"] ;
435 -> 437 ;
438 [label="gini = 0.0\nsamples = 2\nvalue = [2, 0]"] ;
432 -> 438 ;
439 [label="amount <= 107.3\ngini = 0.418\nsamples = 2884\nvalue = [2025, 859]"] ;
257 -> 439 ;
440 [label="amount <= 107.133\ngini = 0.497\nsamples = 1373\nvalue = [634, 739]"] ;
439 -> 440 ;
441 [label="gini = 0.0\nsamples = 501\nvalue = [501, 0]"] ;
440 -> 441 ;
442 [label="txvariantcode <= 9.024\ngini = 0.259\nsamples = 872\nvalue = [133, 739]"] ;
440 -> 442 ;
443 [label="txvariantcode <= 8.997\ngini = 0.48\nsamples = 250\nvalue = [100, 150]"] ;
442 -> 443 ;
444 [label="txvariantcode <= 7.007\ngini = 0.265\nsamples = 178\nvalue = [28, 150]"] ;
443 -> 444 ;
445 [label="gini = 0.0\nsamples = 27\nvalue = [27, 0]"] ;
444 -> 445 ;
446 [label="txvariantcode <= 7.993\ngini = 0.013\nsamples = 151\nvalue = [1, 150]"] ;
444 -> 446 ;
447 [label="gini = 0.0\nsamples = 80\nvalue = [0, 80]"] ;
446 -> 447 ;
448 [label="txvariantcode <= 8.008\ngini = 0.028\nsamples = 71\nvalue = [1, 70]"] ;
446 -> 448 ;
449 [label="gini = 0.0\nsamples = 1\nvalue = [1, 0]"] ;
448 -> 449 ;
450 [label="gini = 0.0\nsamples = 70\nvalue = [0, 70]"] ;
448 -> 450 ;
451 [label="gini = 0.0\nsamples = 72\nvalue = [72, 0]"] ;
443 -> 451 ;
452 [label="txvariantcode <= 11.5\ngini = 0.1\nsamples = 622\nvalue = [33, 589]"] ;
442 -> 452 ;
453 [label="txvariantcode <= 9.994\ngini = 0.092\nsamples = 619\nvalue = [30, 589]"] ;
452 -> 453 ;
454 [label="gini = 0.0\nsamples = 79\nvalue = [0, 79]"] ;
453 -> 454 ;
455 [label="txvariantcode <= 10.009\ngini = 0.105\nsamples = 540\nvalue = [30, 510]"] ;
453 -> 455 ;
456 [label="gini = 0.0\nsamples = 7\nvalue = [7, 0]"] ;
455 -> 456 ;
457 [label="txvariantcode <= 11.0\ngini = 0.083\nsamples = 533\nvalue = [23, 510]"] ;
455 -> 457 ;
458 [label="gini = 0.0\nsamples = 71\nvalue = [0, 71]"] ;
457 -> 458 ;
459 [label="gini = 0.095\nsamples = 462\nvalue = [23, 439]"] ;
457 -> 459 ;
460 [label="gini = 0.0\nsamples = 3\nvalue = [3, 0]"] ;
452 -> 460 ;
461 [label="amount <= 147.41\ngini = 0.146\nsamples = 1511\nvalue = [1391, 120]"] ;
439 -> 461 ;
462 [label="txvariantcode <= 12.5\ngini = 0.005\nsamples = 1167\nvalue = [1164, 3]"] ;
461 -> 462 ;
463 [label="amount <= 147.232\ngini = 0.003\nsamples = 1150\nvalue = [1148, 2]"] ;
462 -> 463 ;
464 [label="txvariantcode <= 10.5\ngini = 0.002\nsamples = 1048\nvalue = [1047, 1]"] ;
463 -> 464 ;
465 [label="gini = 0.0\nsamples = 815\nvalue = [815, 0]"] ;
464 -> 465 ;
466 [label="amount <= 121.27\ngini = 0.009\nsamples = 233\nvalue = [232, 1]"] ;
464 -> 466 ;
467 [label="amount <= 120.098\ngini = 0.017\nsamples = 115\nvalue = [114, 1]"] ;
466 -> 467 ;
468 [label="gini = 0.0\nsamples = 94\nvalue = [94, 0]"] ;
467 -> 468 ;
469 [label="gini = 0.091\nsamples = 21\nvalue = [20, 1]"] ;
467 -> 469 ;
470 [label="gini = 0.0\nsamples = 118\nvalue = [118, 0]"] ;
466 -> 470 ;
471 [label="txvariantcode <= 9.5\ngini = 0.019\nsamples = 102\nvalue = [101, 1]"] ;
463 -> 471 ;
472 [label="txvariantcode <= 8.0\ngini = 0.025\nsamples = 78\nvalue = [77, 1]"] ;
471 -> 472 ;
473 [label="gini = 0.0\nsamples = 23\nvalue = [23, 0]"] ;
472 -> 473 ;
474 [label="gini = 0.036\nsamples = 55\nvalue = [54, 1]"] ;
472 -> 474 ;
475 [label="gini = 0.0\nsamples = 24\nvalue = [24, 0]"] ;
471 -> 475 ;
476 [label="gini = 0.111\nsamples = 17\nvalue = [16, 1]"] ;
462 -> 476 ;
477 [label="txvariantcode <= 8.988\ngini = 0.449\nsamples = 344\nvalue = [227, 117]"] ;
461 -> 477 ;
478 [label="txvariantcode <= 7.001\ngini = 0.354\nsamples = 152\nvalue = [35, 117]"] ;
477 -> 478 ;
479 [label="gini = 0.0\nsamples = 35\nvalue = [35, 0]"] ;
478 -> 479 ;
480 [label="gini = 0.0\nsamples = 117\nvalue = [0, 117]"] ;
478 -> 480 ;
481 [label="gini = 0.0\nsamples = 192\nvalue = [192, 0]"] ;
477 -> 481 ;
482 [label="amount <= 217.751\ngini = 0.061\nsamples = 35261\nvalue = [1104, 34157]"] ;
256 -> 482 ;
483 [label="txvariantcode <= 8.992\ngini = 0.149\nsamples = 8364\nvalue = [680, 7684]"] ;
482 -> 483 ;
484 [label="amount <= 207.669\ngini = 0.102\nsamples = 7817\nvalue = [420, 7397]"] ;
483 -> 484 ;
485 [label="amount <= 200.999\ngini = 0.091\nsamples = 7767\nvalue = [371, 7396]"] ;
484 -> 485 ;
486 [label="amount <= 176.544\ngini = 0.077\nsamples = 7457\nvalue = [300, 7157]"] ;
485 -> 486 ;
487 [label="amount <= 171.523\ngini = 0.047\nsamples = 5320\nvalue = [129, 5191]"] ;
486 -> 487 ;
488 [label="txvariantcode <= 4.5\ngini = 0.11\nsamples = 890\nvalue = [52, 838]"] ;
487 -> 488 ;
489 [label="amount <= 171.512\ngini = 0.093\nsamples = 881\nvalue = [43, 838]"] ;
488 -> 489 ;
490 [label="amount <= 170.849\ngini = 0.087\nsamples = 878\nvalue = [40, 838]"] ;
489 -> 490 ;
491 [label="amount <= 169.518\ngini = 0.067\nsamples = 805\nvalue = [28, 777]"] ;
490 -> 491 ;
492 [label="amount <= 169.502\ngini = 0.079\nsamples = 682\nvalue = [28, 654]"] ;
491 -> 492 ;
493 [label="amount <= 168.834\ngini = 0.074\nsamples = 680\nvalue = [26, 654]"] ;
492 -> 493 ;
494 [label="amount <= 168.004\ngini = 0.064\nsamples = 608\nvalue = [20, 588]"] ;
493 -> 494 ;
495 [label="amount <= 168.002\ngini = 0.072\nsamples = 531\nvalue = [20, 511]"] ;
494 -> 495 ;
496 [label="amount <= 167.502\ngini = 0.066\nsamples = 529\nvalue = [18, 511]"] ;
495 -> 496 ;
497 [label="gini = 0.072\nsamples = 483\nvalue = [18, 465]"] ;
496 -> 497 ;
498 [label="gini = 0.0\nsamples = 46\nvalue = [0, 46]"] ;
496 -> 498 ;
499 [label="gini = 0.0\nsamples = 2\nvalue = [2, 0]"] ;
495 -> 499 ;
500 [label="gini = 0.0\nsamples = 77\nvalue = [0, 77]"] ;
494 -> 500 ;
501 [label="amount <= 168.841\ngini = 0.153\nsamples = 72\nvalue = [6, 66]"] ;
493 -> 501 ;
502 [label="gini = 0.0\nsamples = 5\nvalue = [5, 0]"] ;
501 -> 502 ;
503 [label="amount <= 169.178\ngini = 0.029\nsamples = 67\nvalue = [1, 66]"] ;
501 -> 503 ;
504 [label="gini = 0.061\nsamples = 32\nvalue = [1, 31]"] ;
503 -> 504 ;
505 [label="gini = 0.0\nsamples = 35\nvalue = [0, 35]"] ;
503 -> 505 ;
506 [label="gini = 0.0\nsamples = 2\nvalue = [2, 0]"] ;
492 -> 506 ;
507 [label="gini = 0.0\nsamples = 123\nvalue = [0, 123]"] ;
491 -> 507 ;
508 [label="amount <= 170.853\ngini = 0.275\nsamples = 73\nvalue = [12, 61]"] ;
490 -> 508 ;
509 [label="gini = 0.0\nsamples = 10\nvalue = [10, 0]"] ;
508 -> 509 ;
510 [label="amount <= 171.178\ngini = 0.061\nsamples = 63\nvalue = [2, 61]"] ;
508 -> 510 ;
511 [label="gini = 0.0\nsamples = 26\nvalue = [0, 26]"] ;
510 -> 511 ;
512 [label="gini = 0.102\nsamples = 37\nvalue = [2, 35]"] ;
510 -> 512 ;
513 [label="gini = 0.0\nsamples = 3\nvalue = [3, 0]"] ;
489 -> 513 ;
514 [label="gini = 0.0\nsamples = 9\nvalue = [9, 0]"] ;
488 -> 514 ;
515 [label="txvariantcode <= 6.5\ngini = 0.034\nsamples = 4430\nvalue = [77, 4353]"] ;
487 -> 515 ;
516 [label="txvariantcode <= 3.5\ngini = 0.045\nsamples = 2893\nvalue = [67, 2826]"] ;
515 -> 516 ;
517 [label="amount <= 174.199\ngini = 0.044\nsamples = 2891\nvalue = [65, 2826]"] ;
516 -> 517 ;
518 [label="amount <= 172.192\ngini = 0.014\nsamples = 1374\nvalue = [10, 1364]"] ;
517 -> 518 ;
519 [label="amount <= 172.186\ngini = 0.058\nsamples = 67\nvalue = [2, 65]"] ;
518 -> 519 ;
520 [label="gini = 0.0\nsamples = 64\nvalue = [0, 64]"] ;
519 -> 520 ;
521 [label="gini = 0.444\nsamples = 3\nvalue = [2, 1]"] ;
519 -> 521 ;
522 [label="amount <= 173.528\ngini = 0.012\nsamples = 1307\nvalue = [8, 1299]"] ;
518 -> 522 ;
523 [label="amount <= 172.526\ngini = 0.007\nsamples = 873\nvalue = [3, 870]"] ;
522 -> 523 ;
524 [label="amount <= 172.524\ngini = 0.019\nsamples = 205\nvalue = [2, 203]"] ;
523 -> 524 ;
525 [label="gini = 0.0\nsamples = 203\nvalue = [0, 203]"] ;
524 -> 525 ;
526 [label="gini = 0.0\nsamples = 2\nvalue = [2, 0]"] ;
524 -> 526 ;
527 [label="amount <= 172.861\ngini = 0.003\nsamples = 668\nvalue = [1, 667]"] ;
523 -> 527 ;
528 [label="amount <= 172.86\ngini = 0.009\nsamples = 229\nvalue = [1, 228]"] ;
527 -> 528 ;
529 [label="gini = 0.0\nsamples = 228\nvalue = [0, 228]"] ;
528 -> 529 ;
530 [label="gini = 0.0\nsamples = 1\nvalue = [1, 0]"] ;
528 -> 530 ;
531 [label="gini = 0.0\nsamples = 439\nvalue = [0, 439]"] ;
527 -> 531 ;
532 [label="amount <= 173.534\ngini = 0.023\nsamples = 434\nvalue = [5, 429]"] ;
522 -> 532 ;
533 [label="gini = 0.0\nsamples = 4\nvalue = [4, 0]"] ;
532 -> 533 ;
534 [label="amount <= 173.699\ngini = 0.005\nsamples = 430\nvalue = [1, 429]"] ;
532 -> 534 ;
535 [label="amount <= 173.697\ngini = 0.019\nsamples = 105\nvalue = [1, 104]"] ;
534 -> 535 ;
536 [label="gini = 0.0\nsamples = 104\nvalue = [0, 104]"] ;
535 -> 536 ;
537 [label="gini = 0.0\nsamples = 1\nvalue = [1, 0]"] ;
535 -> 537 ;
538 [label="gini = 0.0\nsamples = 325\nvalue = [0, 325]"] ;
534 -> 538 ;
539 [label="amount <= 174.535\ngini = 0.07\nsamples = 1517\nvalue = [55, 1462]"] ;
517 -> 539 ;
540 [label="amount <= 174.531\ngini = 0.076\nsamples = 1387\nvalue = [55, 1332]"] ;
539 -> 540 ;
541 [label="amount <= 174.203\ngini = 0.075\nsamples = 1386\nvalue = [54, 1332]"] ;
540 -> 541 ;
542 [label="gini = 0.076\nsamples = 1370\nvalue = [54, 1316]"] ;
541 -> 542 ;
543 [label="gini = 0.0\nsamples = 16\nvalue = [0, 16]"] ;
541 -> 543 ;
544 [label="gini = 0.0\nsamples = 1\nvalue = [1, 0]"] ;
540 -> 544 ;
545 [label="gini = 0.0\nsamples = 130\nvalue = [0, 130]"] ;
539 -> 545 ;
546 [label="gini = 0.0\nsamples = 2\nvalue = [2, 0]"] ;
516 -> 546 ;
547 [label="amount <= 173.614\ngini = 0.013\nsamples = 1537\nvalue = [10, 1527]"] ;
515 -> 547 ;
548 [label="gini = 0.0\nsamples = 1\nvalue = [1, 0]"] ;
547 -> 548 ;
549 [label="txvariantcode <= 7.01\ngini = 0.012\nsamples = 1536\nvalue = [9, 1527]"] ;
547 -> 549 ;
550 [label="gini = 0.013\nsamples = 1372\nvalue = [9, 1363]"] ;
549 -> 550 ;
551 [label="gini = 0.0\nsamples = 164\nvalue = [0, 164]"] ;
549 -> 551 ;
552 [label="amount <= 197.65\ngini = 0.147\nsamples = 2137\nvalue = [171, 1966]"] ;
486 -> 552 ;
553 [label="amount <= 187.584\ngini = 0.363\nsamples = 685\nvalue = [163, 522]"] ;
552 -> 553 ;
554 [label="txvariantcode <= 3.5\ngini = 0.248\nsamples = 608\nvalue = [88, 520]"] ;
553 -> 554 ;
555 [label="amount <= 176.564\ngini = 0.216\nsamples = 593\nvalue = [73, 520]"] ;
554 -> 555 ;
556 [label="gini = 0.0\nsamples = 3\nvalue = [3, 0]"] ;
555 -> 556 ;
557 [label="amount <= 180.894\ngini = 0.209\nsamples = 590\nvalue = [70, 520]"] ;
555 -> 557 ;
558 [label="amount <= 178.222\ngini = 0.136\nsamples = 314\nvalue = [23, 291]"] ;
557 -> 558 ;
559 [label="amount <= 178.207\ngini = 0.242\nsamples = 128\nvalue = [18, 110]"] ;
558 -> 559 ;
560 [label="amount <= 177.541\ngini = 0.165\nsamples = 121\nvalue = [11, 110]"] ;
559 -> 560 ;
561 [label="amount <= 177.205\ngini = 0.03\nsamples = 66\nvalue = [1, 65]"] ;
560 -> 561 ;
562 [label="gini = 0.0\nsamples = 43\nvalue = [0, 43]"] ;
561 -> 562 ;
563 [label="gini = 0.083\nsamples = 23\nvalue = [1, 22]"] ;
561 -> 563 ;
564 [label="amount <= 177.55\ngini = 0.298\nsamples = 55\nvalue = [10, 45]"] ;
560 -> 564 ;
565 [label="gini = 0.0\nsamples = 10\nvalue = [10, 0]"] ;
564 -> 565 ;
566 [label="gini = 0.0\nsamples = 45\nvalue = [0, 45]"] ;
564 -> 566 ;
567 [label="gini = 0.0\nsamples = 7\nvalue = [7, 0]"] ;
559 -> 567 ;
568 [label="amount <= 179.394\ngini = 0.052\nsamples = 186\nvalue = [5, 181]"] ;
558 -> 568 ;
569 [label="amount <= 179.392\ngini = 0.105\nsamples = 90\nvalue = [5, 85]"] ;
568 -> 569 ;
570 [label="amount <= 178.883\ngini = 0.045\nsamples = 87\nvalue = [2, 85]"] ;
569 -> 570 ;
571 [label="gini = 0.0\nsamples = 40\nvalue = [0, 40]"] ;
570 -> 571 ;
572 [label="gini = 0.081\nsamples = 47\nvalue = [2, 45]"] ;
570 -> 572 ;
573 [label="gini = 0.0\nsamples = 3\nvalue = [3, 0]"] ;
569 -> 573 ;
574 [label="gini = 0.0\nsamples = 96\nvalue = [0, 96]"] ;
568 -> 574 ;
575 [label="amount <= 180.902\ngini = 0.283\nsamples = 276\nvalue = [47, 229]"] ;
557 -> 575 ;
576 [label="gini = 0.105\nsamples = 18\nvalue = [17, 1]"] ;
575 -> 576 ;
577 [label="amount <= 182.23\ngini = 0.206\nsamples = 258\nvalue = [30, 228]"] ;
575 -> 577 ;
578 [label="amount <= 181.901\ngini = 0.035\nsamples = 56\nvalue = [1, 55]"] ;
577 -> 578 ;
579 [label="gini = 0.0\nsamples = 41\nvalue = [0, 41]"] ;
578 -> 579 ;
580 [label="gini = 0.124\nsamples = 15\nvalue = [1, 14]"] ;
578 -> 580 ;
581 [label="amount <= 182.245\ngini = 0.246\nsamples = 202\nvalue = [29, 173]"] ;
577 -> 581 ;
582 [label="gini = 0.0\nsamples = 10\nvalue = [10, 0]"] ;
581 -> 582 ;
583 [label="amount <= 182.562\ngini = 0.178\nsamples = 192\nvalue = [19, 173]"] ;
581 -> 583 ;
584 [label="gini = 0.0\nsamples = 14\nvalue = [0, 14]"] ;
583 -> 584 ;
585 [label="amount <= 182.578\ngini = 0.191\nsamples = 178\nvalue = [19, 159]"] ;
583 -> 585 ;
586 [label="gini = 0.0\nsamples = 1\nvalue = [1, 0]"] ;
585 -> 586 ;
587 [label="amount <= 182.916\ngini = 0.183\nsamples = 177\nvalue = [18, 159]"] ;
585 -> 587 ;
588 [label="gini = 0.42\nsamples = 10\nvalue = [3, 7]"] ;
587 -> 588 ;
589 [label="amount <= 186.591\ngini = 0.164\nsamples = 167\nvalue = [15, 152]"] ;
587 -> 589 ;
590 [label="amount <= 185.121\ngini = 0.132\nsamples = 127\nvalue = [9, 118]"] ;
589 -> 590 ;
591 [label="amount <= 185.083\ngini = 0.173\nsamples = 73\nvalue = [7, 66]"] ;
590 -> 591 ;
592 [label="amount <= 183.555\ngini = 0.131\nsamples = 71\nvalue = [5, 66]"] ;
591 -> 592 ;
593 [label="gini = 0.0\nsamples = 17\nvalue = [0, 17]"] ;
592 -> 593 ;
594 [label="amount <= 183.584\ngini = 0.168\nsamples = 54\nvalue = [5, 49]"] ;
592 -> 594 ;
595 [label="gini = 0.0\nsamples = 2\nvalue = [2, 0]"] ;
594 -> 595 ;
596 [label="amount <= 184.239\ngini = 0.109\nsamples = 52\nvalue = [3, 49]"] ;
594 -> 596 ;
597 [label="gini = 0.0\nsamples = 25\nvalue = [0, 25]"] ;
596 -> 597 ;
598 [label="gini = 0.198\nsamples = 27\nvalue = [3, 24]"] ;
596 -> 598 ;
599 [label="gini = 0.0\nsamples = 2\nvalue = [2, 0]"] ;
591 -> 599 ;
600 [label="amount <= 185.582\ngini = 0.071\nsamples = 54\nvalue = [2, 52]"] ;
590 -> 600 ;
601 [label="gini = 0.0\nsamples = 16\nvalue = [0, 16]"] ;
600 -> 601 ;
602 [label="gini = 0.1\nsamples = 38\nvalue = [2, 36]"] ;
600 -> 602 ;
603 [label="gini = 0.255\nsamples = 40\nvalue = [6, 34]"] ;
589 -> 603 ;
604 [label="gini = 0.0\nsamples = 15\nvalue = [15, 0]"] ;
554 -> 604 ;
605 [label="amount <= 197.315\ngini = 0.051\nsamples = 77\nvalue = [75, 2]"] ;
553 -> 605 ;
606 [label="amount <= 187.768\ngini = 0.026\nsamples = 75\nvalue = [74, 1]"] ;
605 -> 606 ;
607 [label="gini = 0.095\nsamples = 20\nvalue = [19, 1]"] ;
606 -> 607 ;
608 [label="gini = 0.0\nsamples = 55\nvalue = [55, 0]"] ;
606 -> 608 ;
609 [label="gini = 0.5\nsamples = 2\nvalue = [1, 1]"] ;
605 -> 609 ;
610 [label="txvariantcode <= 4.5\ngini = 0.011\nsamples = 1452\nvalue = [8, 1444]"] ;
552 -> 610 ;
611 [label="amount <= 199.324\ngini = 0.008\nsamples = 1450\nvalue = [6, 1444]"] ;
610 -> 611 ;
612 [label="gini = 0.0\nsamples = 906\nvalue = [0, 906]"] ;
611 -> 612 ;
613 [label="amount <= 199.325\ngini = 0.022\nsamples = 544\nvalue = [6, 538]"] ;
611 -> 613 ;
614 [label="gini = 0.0\nsamples = 4\nvalue = [4, 0]"] ;
613 -> 614 ;
615 [label="amount <= 200.329\ngini = 0.007\nsamples = 540\nvalue = [2, 538]"] ;
613 -> 615 ;
616 [label="gini = 0.0\nsamples = 333\nvalue = [0, 333]"] ;
615 -> 616 ;
617 [label="amount <= 200.33\ngini = 0.019\nsamples = 207\nvalue = [2, 205]"] ;
615 -> 617 ;
618 [label="gini = 0.0\nsamples = 2\nvalue = [2, 0]"] ;
617 -> 618 ;
619 [label="gini = 0.0\nsamples = 205\nvalue = [0, 205]"] ;
617 -> 619 ;
620 [label="gini = 0.0\nsamples = 2\nvalue = [2, 0]"] ;
610 -> 620 ;
621 [label="amount <= 201.003\ngini = 0.353\nsamples = 310\nvalue = [71, 239]"] ;
485 -> 621 ;
622 [label="gini = 0.091\nsamples = 21\nvalue = [20, 1]"] ;
621 -> 622 ;
623 [label="txvariantcode <= 5.0\ngini = 0.291\nsamples = 289\nvalue = [51, 238]"] ;
621 -> 623 ;
624 [label="amount <= 204.944\ngini = 0.259\nsamples = 281\nvalue = [43, 238]"] ;
623 -> 624 ;
625 [label="amount <= 202.002\ngini = 0.148\nsamples = 162\nvalue = [13, 149]"] ;
624 -> 625 ;
626 [label="gini = 0.0\nsamples = 34\nvalue = [0, 34]"] ;
625 -> 626 ;
627 [label="amount <= 202.027\ngini = 0.182\nsamples = 128\nvalue = [13, 115]"] ;
625 -> 627 ;
628 [label="gini = 0.0\nsamples = 1\nvalue = [1, 0]"] ;
627 -> 628 ;
629 [label="amount <= 204.371\ngini = 0.171\nsamples = 127\nvalue = [12, 115]"] ;
627 -> 629 ;
630 [label="amount <= 204.349\ngini = 0.215\nsamples = 98\nvalue = [12, 86]"] ;
629 -> 630 ;
631 [label="amount <= 203.689\ngini = 0.139\nsamples = 93\nvalue = [7, 86]"] ;
630 -> 631 ;
632 [label="amount <= 203.673\ngini = 0.195\nsamples = 64\nvalue = [7, 57]"] ;
631 -> 632 ;
633 [label="amount <= 203.346\ngini = 0.172\nsamples = 63\nvalue = [6, 57]"] ;
632 -> 633 ;
634 [label="amount <= 203.307\ngini = 0.204\nsamples = 52\nvalue = [6, 46]"] ;
633 -> 634 ;
635 [label="amount <= 202.999\ngini = 0.177\nsamples = 51\nvalue = [5, 46]"] ;
634 -> 635 ;
636 [label="gini = 0.136\nsamples = 41\nvalue = [3, 38]"] ;
635 -> 636 ;
637 [label="gini = 0.32\nsamples = 10\nvalue = [2, 8]"] ;
635 -> 637 ;
638 [label="gini = 0.0\nsamples = 1\nvalue = [1, 0]"] ;
634 -> 638 ;
639 [label="gini = 0.0\nsamples = 11\nvalue = [0, 11]"] ;
633 -> 639 ;
640 [label="gini = 0.0\nsamples = 1\nvalue = [1, 0]"] ;
632 -> 640 ;
641 [label="gini = 0.0\nsamples = 29\nvalue = [0, 29]"] ;
631 -> 641 ;
642 [label="gini = 0.0\nsamples = 5\nvalue = [5, 0]"] ;
630 -> 642 ;
643 [label="gini = 0.0\nsamples = 29\nvalue = [0, 29]"] ;
629 -> 643 ;
644 [label="amount <= 205.034\ngini = 0.377\nsamples = 119\nvalue = [30, 89]"] ;
624 -> 644 ;
645 [label="gini = 0.153\nsamples = 24\nvalue = [22, 2]"] ;
644 -> 645 ;
646 [label="amount <= 206.367\ngini = 0.154\nsamples = 95\nvalue = [8, 87]"] ;
644 -> 646 ;
647 [label="gini = 0.249\nsamples = 48\nvalue = [7, 41]"] ;
646 -> 647 ;
648 [label="gini = 0.042\nsamples = 47\nvalue = [1, 46]"] ;
646 -> 648 ;
649 [label="gini = 0.0\nsamples = 8\nvalue = [8, 0]"] ;
623 -> 649 ;
650 [label="amount <= 207.784\ngini = 0.039\nsamples = 50\nvalue = [49, 1]"] ;
484 -> 650 ;
651 [label="gini = 0.117\nsamples = 16\nvalue = [15, 1]"] ;
650 -> 651 ;
652 [label="gini = 0.0\nsamples = 34\nvalue = [34, 0]"] ;
650 -> 652 ;
653 [label="amount <= 174.702\ngini = 0.499\nsamples = 547\nvalue = [260, 287]"] ;
483 -> 653 ;
654 [label="txvariantcode <= 9.001\ngini = 0.339\nsamples = 365\nvalue = [79, 286]"] ;
653 -> 654 ;
655 [label="gini = 0.0\nsamples = 45\nvalue = [45, 0]"] ;
654 -> 655 ;
656 [label="amount <= 174.033\ngini = 0.19\nsamples = 320\nvalue = [34, 286]"] ;
654 -> 656 ;
657 [label="gini = 0.0\nsamples = 16\nvalue = [16, 0]"] ;
656 -> 657 ;
658 [label="txvariantcode <= 11.011\ngini = 0.111\nsamples = 304\nvalue = [18, 286]"] ;
656 -> 658 ;
659 [label="txvariantcode <= 10.997\ngini = 0.201\nsamples = 159\nvalue = [18, 141]"] ;
658 -> 659 ;
660 [label="txvariantcode <= 10.008\ngini = 0.054\nsamples = 145\nvalue = [4, 141]"] ;
659 -> 660 ;
661 [label="txvariantcode <= 9.99\ngini = 0.112\nsamples = 67\nvalue = [4, 63]"] ;
660 -> 661 ;
662 [label="gini = 0.0\nsamples = 63\nvalue = [0, 63]"] ;
661 -> 662 ;
663 [label="gini = 0.0\nsamples = 4\nvalue = [4, 0]"] ;
661 -> 663 ;
664 [label="gini = 0.0\nsamples = 78\nvalue = [0, 78]"] ;
660 -> 664 ;
665 [label="gini = 0.0\nsamples = 14\nvalue = [14, 0]"] ;
659 -> 665 ;
666 [label="gini = 0.0\nsamples = 145\nvalue = [0, 145]"] ;
658 -> 666 ;
667 [label="amount <= 217.582\ngini = 0.011\nsamples = 182\nvalue = [181, 1]"] ;
653 -> 667 ;
668 [label="gini = 0.0\nsamples = 181\nvalue = [181, 0]"] ;
667 -> 668 ;
669 [label="gini = 0.0\nsamples = 1\nvalue = [0, 1]"] ;
667 -> 669 ;
670 [label="amount <= 602.974\ngini = 0.031\nsamples = 26897\nvalue = [424, 26473]"] ;
482 -> 670 ;
671 [label="cardverificationcodesupplied <= 1.5\ngini = 0.03\nsamples = 26876\nvalue = [404, 26472]"] ;
670 -> 671 ;
672 [label="amount <= 288.139\ngini = 0.029\nsamples = 26874\nvalue = [402, 26472]"] ;
671 -> 672 ;
673 [label="amount <= 273.358\ngini = 0.051\nsamples = 9710\nvalue = [253, 9457]"] ;
672 -> 673 ;
674 [label="txvariantcode <= 13.0\ngini = 0.044\nsamples = 9100\nvalue = [205, 8895]"] ;
673 -> 674 ;
675 [label="txvariantcode <= 9.001\ngini = 0.043\nsamples = 9095\nvalue = [202, 8893]"] ;
674 -> 675 ;
676 [label="txvariantcode <= 9.0\ngini = 0.052\nsamples = 6897\nvalue = [183, 6714]"] ;
675 -> 676 ;
677 [label="amount <= 218.59\ngini = 0.038\nsamples = 6845\nvalue = [131, 6714]"] ;
676 -> 677 ;
678 [label="gini = 0.0\nsamples = 2\nvalue = [2, 0]"] ;
677 -> 678 ;
679 [label="txvariantcode <= 3.0\ngini = 0.037\nsamples = 6843\nvalue = [129, 6714]"] ;
677 -> 679 ;
680 [label="amount <= 268.0\ngini = 0.052\nsamples = 3752\nvalue = [100, 3652]"] ;
679 -> 680 ;
681 [label="amount <= 221.126\ngini = 0.047\nsamples = 3741\nvalue = [90, 3651]"] ;
680 -> 681 ;
682 [label="gini = 0.245\nsamples = 7\nvalue = [6, 1]"] ;
681 -> 682 ;
683 [label="amount <= 263.645\ngini = 0.044\nsamples = 3734\nvalue = [84, 3650]"] ;
681 -> 683 ;
684 [label="amount <= 251.249\ngini = 0.05\nsamples = 3281\nvalue = [84, 3197]"] ;
683 -> 684 ;
685 [label="amount <= 250.573\ngini = 0.041\nsamples = 3265\nvalue = [69, 3196]"] ;
684 -> 685 ;
686 [label="amount <= 241.205\ngini = 0.039\nsamples = 3166\nvalue = [63, 3103]"] ;
685 -> 686 ;
687 [label="amount <= 239.187\ngini = 0.052\nsamples = 1831\nvalue = [49, 1782]"] ;
686 -> 687 ;
688 [label="amount <= 234.517\ngini = 0.044\nsamples = 1283\nvalue = [29, 1254]"] ;
687 -> 688 ;
689 [label="amount <= 234.499\ngini = 0.052\nsamples = 1079\nvalue = [29, 1050]"] ;
688 -> 689 ;
690 [label="amount <= 227.809\ngini = 0.045\nsamples = 1075\nvalue = [25, 1050]"] ;
689 -> 690 ;
691 [label="amount <= 227.794\ngini = 0.062\nsamples = 467\nvalue = [15, 452]"] ;
690 -> 691 ;
692 [label="amount <= 224.955\ngini = 0.046\nsamples = 462\nvalue = [11, 451]"] ;
691 -> 692 ;
693 [label="amount <= 224.946\ngini = 0.066\nsamples = 264\nvalue = [9, 255]"] ;
692 -> 693 ;
694 [label="amount <= 222.105\ngini = 0.059\nsamples = 263\nvalue = [8, 255]"] ;
693 -> 694 ;
695 [label="gini = 0.0\nsamples = 66\nvalue = [0, 66]"] ;
694 -> 695 ;
696 [label="amount <= 222.119\ngini = 0.078\nsamples = 197\nvalue = [8, 189]"] ;
694 -> 696 ;
697 [label="gini = 0.0\nsamples = 2\nvalue = [2, 0]"] ;
696 -> 697 ;
698 [label="amount <= 223.774\ngini = 0.06\nsamples = 195\nvalue = [6, 189]"] ;
696 -> 698 ;
699 [label="amount <= 222.276\ngini = 0.035\nsamples = 112\nvalue = [2, 110]"] ;
698 -> 699 ;
700 [label="gini = 0.142\nsamples = 13\nvalue = [1, 12]"] ;
699 -> 700 ;
701 [label="amount <= 222.782\ngini = 0.02\nsamples = 99\nvalue = [1, 98]"] ;
699 -> 701 ;
702 [label="gini = 0.053\nsamples = 37\nvalue = [1, 36]"] ;
701 -> 702 ;
703 [label="gini = 0.0\nsamples = 62\nvalue = [0, 62]"] ;
701 -> 703 ;
704 [label="amount <= 223.795\ngini = 0.092\nsamples = 83\nvalue = [4, 79]"] ;
698 -> 704 ;
705 [label="gini = 0.0\nsamples = 2\nvalue = [2, 0]"] ;
704 -> 705 ;
706 [label="amount <= 224.448\ngini = 0.048\nsamples = 81\nvalue = [2, 79]"] ;
704 -> 706 ;
707 [label="gini = 0.0\nsamples = 48\nvalue = [0, 48]"] ;
706 -> 707 ;
708 [label="gini = 0.114\nsamples = 33\nvalue = [2, 31]"] ;
706 -> 708 ;
709 [label="gini = 0.0\nsamples = 1\nvalue = [1, 0]"] ;
693 -> 709 ;
710 [label="amount <= 227.123\ngini = 0.02\nsamples = 198\nvalue = [2, 196]"] ;
692 -> 710 ;
711 [label="gini = 0.0\nsamples = 159\nvalue = [0, 159]"] ;
710 -> 711 ;
712 [label="gini = 0.097\nsamples = 39\nvalue = [2, 37]"] ;
710 -> 712 ;
713 [label="gini = 0.32\nsamples = 5\nvalue = [4, 1]"] ;
691 -> 713 ;
714 [label="amount <= 229.475\ngini = 0.032\nsamples = 608\nvalue = [10, 598]"] ;
690 -> 714 ;
715 [label="amount <= 228.478\ngini = 0.009\nsamples = 213\nvalue = [1, 212]"] ;
714 -> 715 ;
716 [label="amount <= 228.466\ngini = 0.022\nsamples = 90\nvalue = [1, 89]"] ;
715 -> 716 ;
717 [label="gini = 0.0\nsamples = 89\nvalue = [0, 89]"] ;
716 -> 717 ;
718 [label="gini = 0.0\nsamples = 1\nvalue = [1, 0]"] ;
716 -> 718 ;
719 [label="gini = 0.0\nsamples = 123\nvalue = [0, 123]"] ;
715 -> 719 ;
720 [label="amount <= 229.476\ngini = 0.045\nsamples = 395\nvalue = [9, 386]"] ;
714 -> 720 ;
721 [label="gini = 0.0\nsamples = 1\nvalue = [1, 0]"] ;
720 -> 721 ;
722 [label="amount <= 229.807\ngini = 0.04\nsamples = 394\nvalue = [8, 386]"] ;
720 -> 722 ;
723 [label="gini = 0.0\nsamples = 49\nvalue = [0, 49]"] ;
722 -> 723 ;
724 [label="amount <= 229.813\ngini = 0.045\nsamples = 345\nvalue = [8, 337]"] ;
722 -> 724 ;
725 [label="gini = 0.0\nsamples = 2\nvalue = [2, 0]"] ;
724 -> 725 ;
726 [label="amount <= 230.478\ngini = 0.034\nsamples = 343\nvalue = [6, 337]"] ;
724 -> 726 ;
727 [label="gini = 0.0\nsamples = 86\nvalue = [0, 86]"] ;
726 -> 727 ;
728 [label="amount <= 230.481\ngini = 0.046\nsamples = 257\nvalue = [6, 251]"] ;
726 -> 728 ;
729 [label="gini = 0.0\nsamples = 1\nvalue = [1, 0]"] ;
728 -> 729 ;
730 [label="amount <= 233.502\ngini = 0.038\nsamples = 256\nvalue = [5, 251]"] ;
728 -> 730 ;
731 [label="amount <= 233.493\ngini = 0.047\nsamples = 208\nvalue = [5, 203]"] ;
730 -> 731 ;
732 [label="amount <= 231.184\ngini = 0.038\nsamples = 207\nvalue = [4, 203]"] ;
731 -> 732 ;
733 [label="amount <= 231.149\ngini = 0.059\nsamples = 98\nvalue = [3, 95]"] ;
732 -> 733 ;
734 [label="amount <= 230.818\ngini = 0.021\nsamples = 95\nvalue = [1, 94]"] ;
733 -> 734 ;
735 [label="gini = 0.043\nsamples = 46\nvalue = [1, 45]"] ;
734 -> 735 ;
736 [label="gini = 0.0\nsamples = 49\nvalue = [0, 49]"] ;
734 -> 736 ;
737 [label="gini = 0.444\nsamples = 3\nvalue = [2, 1]"] ;
733 -> 737 ;
738 [label="amount <= 233.149\ngini = 0.018\nsamples = 109\nvalue = [1, 108]"] ;
732 -> 738 ;
739 [label="gini = 0.0\nsamples = 89\nvalue = [0, 89]"] ;
738 -> 739 ;
740 [label="gini = 0.095\nsamples = 20\nvalue = [1, 19]"] ;
738 -> 740 ;
741 [label="gini = 0.0\nsamples = 1\nvalue = [1, 0]"] ;
731 -> 741 ;
742 [label="gini = 0.0\nsamples = 48\nvalue = [0, 48]"] ;
730 -> 742 ;
743 [label="gini = 0.0\nsamples = 4\nvalue = [4, 0]"] ;
689 -> 743 ;
744 [label="gini = 0.0\nsamples = 204\nvalue = [0, 204]"] ;
688 -> 744 ;
745 [label="amount <= 239.205\ngini = 0.07\nsamples = 548\nvalue = [20, 528]"] ;
687 -> 745 ;
746 [label="gini = 0.0\nsamples = 3\nvalue = [3, 0]"] ;
745 -> 746 ;
747 [label="amount <= 241.195\ngini = 0.06\nsamples = 545\nvalue = [17, 528]"] ;
745 -> 747 ;
748 [label="amount <= 239.889\ngini = 0.02\nsamples = 98\nvalue = [1, 97]"] ;
747 -> 748 ;
749 [label="gini = 0.062\nsamples = 31\nvalue = [1, 30]"] ;
748 -> 749 ;
750 [label="gini = 0.0\nsamples = 67\nvalue = [0, 67]"] ;
748 -> 750 ;
751 [label="gini = 0.069\nsamples = 447\nvalue = [16, 431]"] ;
747 -> 751 ;
752 [label="amount <= 247.895\ngini = 0.021\nsamples = 1335\nvalue = [14, 1321]"] ;
686 -> 752 ;
753 [label="amount <= 243.878\ngini = 0.01\nsamples = 955\nvalue = [5, 950]"] ;
752 -> 753 ;
754 [label="gini = 0.0\nsamples = 398\nvalue = [0, 398]"] ;
753 -> 754 ;
755 [label="amount <= 243.884\ngini = 0.018\nsamples = 557\nvalue = [5, 552]"] ;
753 -> 755 ;
756 [label="gini = 0.0\nsamples = 1\nvalue = [1, 0]"] ;
755 -> 756 ;
757 [label="amount <= 245.223\ngini = 0.014\nsamples = 556\nvalue = [4, 552]"] ;
755 -> 757 ;
758 [label="amount <= 245.212\ngini = 0.042\nsamples = 187\nvalue = [4, 183]"] ;
757 -> 758 ;
759 [label="amount <= 244.55\ngini = 0.032\nsamples = 186\nvalue = [3, 183]"] ;
758 -> 759 ;
760 [label="gini = 0.0\nsamples = 96\nvalue = [0, 96]"] ;
759 -> 760 ;
761 [label="amount <= 244.552\ngini = 0.064\nsamples = 90\nvalue = [3, 87]"] ;
759 -> 761 ;
762 [label="gini = 0.0\nsamples = 1\nvalue = [1, 0]"] ;
761 -> 762 ;
763 [label="amount <= 244.891\ngini = 0.044\nsamples = 89\nvalue = [2, 87]"] ;
761 -> 763 ;
764 [label="gini = 0.093\nsamples = 41\nvalue = [2, 39]"] ;
763 -> 764 ;
765 [label="gini = 0.0\nsamples = 48\nvalue = [0, 48]"] ;
763 -> 765 ;
766 [label="gini = 0.0\nsamples = 1\nvalue = [1, 0]"] ;
758 -> 766 ;
767 [label="gini = 0.0\nsamples = 369\nvalue = [0, 369]"] ;
757 -> 767 ;
768 [label="amount <= 247.902\ngini = 0.046\nsamples = 380\nvalue = [9, 371]"] ;
752 -> 768 ;
769 [label="gini = 0.219\nsamples = 8\nvalue = [7, 1]"] ;
768 -> 769 ;
770 [label="amount <= 249.231\ngini = 0.011\nsamples = 372\nvalue = [2, 370]"] ;
768 -> 770 ;
771 [label="gini = 0.0\nsamples = 197\nvalue = [0, 197]"] ;
770 -> 771 ;
772 [label="amount <= 249.24\ngini = 0.023\nsamples = 175\nvalue = [2, 173]"] ;
770 -> 772 ;
773 [label="gini = 0.0\nsamples = 1\nvalue = [1, 0]"] ;
772 -> 773 ;
774 [label="amount <= 249.919\ngini = 0.011\nsamples = 174\nvalue = [1, 173]"] ;
772 -> 774 ;
775 [label="amount <= 249.906\ngini = 0.023\nsamples = 86\nvalue = [1, 85]"] ;
774 -> 775 ;
776 [label="gini = 0.0\nsamples = 85\nvalue = [0, 85]"] ;
775 -> 776 ;
777 [label="gini = 0.0\nsamples = 1\nvalue = [1, 0]"] ;
775 -> 777 ;
778 [label="gini = 0.0\nsamples = 88\nvalue = [0, 88]"] ;
774 -> 778 ;
779 [label="amount <= 250.582\ngini = 0.114\nsamples = 99\nvalue = [6, 93]"] ;
685 -> 779 ;
780 [label="gini = 0.0\nsamples = 6\nvalue = [6, 0]"] ;
779 -> 780 ;
781 [label="gini = 0.0\nsamples = 93\nvalue = [0, 93]"] ;
779 -> 781 ;
782 [label="gini = 0.117\nsamples = 16\nvalue = [15, 1]"] ;
684 -> 782 ;
783 [label="gini = 0.0\nsamples = 453\nvalue = [0, 453]"] ;
683 -> 783 ;
784 [label="gini = 0.165\nsamples = 11\nvalue = [10, 1]"] ;
680 -> 784 ;
785 [label="txvariantcode <= 6.996\ngini = 0.019\nsamples = 3091\nvalue = [29, 3062]"] ;
679 -> 785 ;
786 [label="amount <= 239.86\ngini = 0.004\nsamples = 2036\nvalue = [4, 2032]"] ;
785 -> 786 ;
787 [label="amount <= 227.8\ngini = 0.014\nsamples = 438\nvalue = [3, 435]"] ;
786 -> 787 ;
788 [label="gini = 0.0\nsamples = 435\nvalue = [0, 435]"] ;
787 -> 788 ;
789 [label="gini = 0.0\nsamples = 3\nvalue = [3, 0]"] ;
787 -> 789 ;
790 [label="amount <= 258.791\ngini = 0.001\nsamples = 1598\nvalue = [1, 1597]"] ;
786 -> 790 ;
791 [label="amount <= 248.737\ngini = 0.003\nsamples = 693\nvalue = [1, 692]"] ;
790 -> 791 ;
792 [label="gini = 0.0\nsamples = 692\nvalue = [0, 692]"] ;
791 -> 792 ;
793 [label="gini = 0.0\nsamples = 1\nvalue = [1, 0]"] ;
791 -> 793 ;
794 [label="gini = 0.0\nsamples = 905\nvalue = [0, 905]"] ;
790 -> 794 ;
795 [label="txvariantcode <= 7.0\ngini = 0.046\nsamples = 1055\nvalue = [25, 1030]"] ;
785 -> 795 ;
796 [label="gini = 0.0\nsamples = 23\nvalue = [23, 0]"] ;
795 -> 796 ;
797 [label="txvariantcode <= 8.0\ngini = 0.004\nsamples = 1032\nvalue = [2, 1030]"] ;
795 -> 797 ;
798 [label="txvariantcode <= 8.0\ngini = 0.008\nsamples = 483\nvalue = [2, 481]"] ;
797 -> 798 ;
799 [label="gini = 0.0\nsamples = 481\nvalue = [0, 481]"] ;
798 -> 799 ;
800 [label="gini = 0.0\nsamples = 2\nvalue = [2, 0]"] ;
798 -> 800 ;
801 [label="gini = 0.0\nsamples = 549\nvalue = [0, 549]"] ;
797 -> 801 ;
802 [label="gini = 0.0\nsamples = 52\nvalue = [52, 0]"] ;
676 -> 802 ;
803 [label="txvariantcode <= 11.0\ngini = 0.017\nsamples = 2198\nvalue = [19, 2179]"] ;
675 -> 803 ;
804 [label="amount <= 234.5\ngini = 0.005\nsamples = 1107\nvalue = [3, 1104]"] ;
803 -> 804 ;
805 [label="amount <= 224.948\ngini = 0.027\nsamples = 219\nvalue = [3, 216]"] ;
804 -> 805 ;
806 [label="txvariantcode <= 10.001\ngini = 0.009\nsamples = 217\nvalue = [1, 216]"] ;
805 -> 806 ;
807 [label="txvariantcode <= 9.999\ngini = 0.019\nsamples = 104\nvalue = [1, 103]"] ;
806 -> 807 ;
808 [label="gini = 0.0\nsamples = 103\nvalue = [0, 103]"] ;
807 -> 808 ;
809 [label="gini = 0.0\nsamples = 1\nvalue = [1, 0]"] ;
807 -> 809 ;
810 [label="gini = 0.0\nsamples = 113\nvalue = [0, 113]"] ;
806 -> 810 ;
811 [label="gini = 0.0\nsamples = 2\nvalue = [2, 0]"] ;
805 -> 811 ;
812 [label="gini = 0.0\nsamples = 888\nvalue = [0, 888]"] ;
804 -> 812 ;
813 [label="amount <= 258.62\ngini = 0.029\nsamples = 1091\nvalue = [16, 1075]"] ;
803 -> 813 ;
814 [label="txvariantcode <= 11.002\ngini = 0.024\nsamples = 1087\nvalue = [13, 1074]"] ;
813 -> 814 ;
815 [label="amount <= 221.098\ngini = 0.052\nsamples = 491\nvalue = [13, 478]"] ;
814 -> 815 ;
816 [label="amount <= 220.429\ngini = 0.004\nsamples = 477\nvalue = [1, 476]"] ;
815 -> 816 ;
817 [label="gini = 0.0\nsamples = 376\nvalue = [0, 376]"] ;
816 -> 817 ;
818 [label="amount <= 220.443\ngini = 0.02\nsamples = 101\nvalue = [1, 100]"] ;
816 -> 818 ;
819 [label="gini = 0.0\nsamples = 1\nvalue = [1, 0]"] ;
818 -> 819 ;
820 [label="gini = 0.0\nsamples = 100\nvalue = [0, 100]"] ;
818 -> 820 ;
821 [label="gini = 0.245\nsamples = 14\nvalue = [12, 2]"] ;
815 -> 821 ;
822 [label="gini = 0.0\nsamples = 596\nvalue = [0, 596]"] ;
814 -> 822 ;
823 [label="gini = 0.375\nsamples = 4\nvalue = [3, 1]"] ;
813 -> 823 ;
824 [label="gini = 0.48\nsamples = 5\nvalue = [3, 2]"] ;
674 -> 824 ;
825 [label="txvariantcode <= 3.001\ngini = 0.145\nsamples = 610\nvalue = [48, 562]"] ;
673 -> 825 ;
826 [label="gini = 0.074\nsamples = 26\nvalue = [25, 1]"] ;
825 -> 826 ;
827 [label="txvariantcode <= 8.395\ngini = 0.076\nsamples = 584\nvalue = [23, 561]"] ;
825 -> 827 ;
828 [label="amount <= 273.361\ngini = 0.018\nsamples = 566\nvalue = [5, 561]"] ;
827 -> 828 ;
829 [label="gini = 0.0\nsamples = 2\nvalue = [2, 0]"] ;
828 -> 829 ;
830 [label="amount <= 279.058\ngini = 0.011\nsamples = 564\nvalue = [3, 561]"] ;
828 -> 830 ;
831 [label="amount <= 279.046\ngini = 0.016\nsamples = 363\nvalue = [3, 360]"] ;
830 -> 831 ;
832 [label="txvariantcode <= 4.205\ngini = 0.011\nsamples = 362\nvalue = [2, 360]"] ;
831 -> 832 ;
833 [label="gini = 0.0\nsamples = 1\nvalue = [1, 0]"] ;
832 -> 833 ;
834 [label="txvariantcode <= 6.003\ngini = 0.006\nsamples = 361\nvalue = [1, 360]"] ;
832 -> 834 ;
835 [label="amount <= 275.55\ngini = 0.017\nsamples = 118\nvalue = [1, 117]"] ;
834 -> 835 ;
836 [label="gini = 0.0\nsamples = 1\nvalue = [1, 0]"] ;
835 -> 836 ;
837 [label="gini = 0.0\nsamples = 117\nvalue = [0, 117]"] ;
835 -> 837 ;
838 [label="gini = 0.0\nsamples = 243\nvalue = [0, 243]"] ;
834 -> 838 ;
839 [label="gini = 0.0\nsamples = 1\nvalue = [1, 0]"] ;
831 -> 839 ;
840 [label="gini = 0.0\nsamples = 201\nvalue = [0, 201]"] ;
830 -> 840 ;
841 [label="gini = 0.0\nsamples = 18\nvalue = [18, 0]"] ;
827 -> 841 ;
842 [label="txvariantcode <= 9.0\ngini = 0.017\nsamples = 17164\nvalue = [149, 17015]"] ;
672 -> 842 ;
843 [label="amount <= 391.263\ngini = 0.012\nsamples = 14970\nvalue = [94, 14876]"] ;
842 -> 843 ;
844 [label="amount <= 359.455\ngini = 0.009\nsamples = 13387\nvalue = [63, 13324]"] ;
843 -> 844 ;
845 [label="amount <= 350.075\ngini = 0.012\nsamples = 10023\nvalue = [59, 9964]"] ;
844 -> 845 ;
846 [label="amount <= 331.818\ngini = 0.011\nsamples = 10019\nvalue = [55, 9964]"] ;
845 -> 846 ;
847 [label="amount <= 326.625\ngini = 0.009\nsamples = 8462\nvalue = [39, 8423]"] ;
846 -> 847 ;
848 [label="amount <= 322.27\ngini = 0.012\nsamples = 5717\nvalue = [35, 5682]"] ;
847 -> 848 ;
849 [label="amount <= 292.12\ngini = 0.011\nsamples = 5713\nvalue = [31, 5682]"] ;
848 -> 849 ;
850 [label="txvariantcode <= 3.337\ngini = 0.003\nsamples = 1568\nvalue = [2, 1566]"] ;
849 -> 850 ;
851 [label="gini = 0.0\nsamples = 2\nvalue = [2, 0]"] ;
850 -> 851 ;
852 [label="gini = 0.0\nsamples = 1566\nvalue = [0, 1566]"] ;
850 -> 852 ;
853 [label="txvariantcode <= 3.9\ngini = 0.014\nsamples = 4145\nvalue = [29, 4116]"] ;
849 -> 853 ;
854 [label="amount <= 316.241\ngini = 0.011\nsamples = 4139\nvalue = [23, 4116]"] ;
853 -> 854 ;
855 [label="amount <= 316.224\ngini = 0.025\nsamples = 1209\nvalue = [15, 1194]"] ;
854 -> 855 ;
856 [label="amount <= 303.504\ngini = 0.023\nsamples = 1208\nvalue = [14, 1194]"] ;
855 -> 856 ;
857 [label="amount <= 301.506\ngini = 0.009\nsamples = 845\nvalue = [4, 841]"] ;
856 -> 857 ;
858 [label="txvariantcode <= 3.001\ngini = 0.021\nsamples = 380\nvalue = [4, 376]"] ;
857 -> 858 ;
859 [label="gini = 0.444\nsamples = 6\nvalue = [4, 2]"] ;
858 -> 859 ;
860 [label="gini = 0.0\nsamples = 374\nvalue = [0, 374]"] ;
858 -> 860 ;
861 [label="gini = 0.0\nsamples = 465\nvalue = [0, 465]"] ;
857 -> 861 ;
862 [label="amount <= 310.545\ngini = 0.054\nsamples = 363\nvalue = [10, 353]"] ;
856 -> 862 ;
863 [label="gini = 0.245\nsamples = 7\nvalue = [6, 1]"] ;
862 -> 863 ;
864 [label="amount <= 314.898\ngini = 0.022\nsamples = 356\nvalue = [4, 352]"] ;
862 -> 864 ;
865 [label="gini = 0.0\nsamples = 272\nvalue = [0, 272]"] ;
864 -> 865 ;
866 [label="amount <= 314.936\ngini = 0.091\nsamples = 84\nvalue = [4, 80]"] ;
864 -> 866 ;
867 [label="gini = 0.0\nsamples = 3\nvalue = [3, 0]"] ;
866 -> 867 ;
868 [label="amount <= 316.063\ngini = 0.024\nsamples = 81\nvalue = [1, 80]"] ;
866 -> 868 ;
869 [label="gini = 0.0\nsamples = 67\nvalue = [0, 67]"] ;
868 -> 869 ;
870 [label="gini = 0.133\nsamples = 14\nvalue = [1, 13]"] ;
868 -> 870 ;
871 [label="gini = 0.0\nsamples = 1\nvalue = [1, 0]"] ;
855 -> 871 ;
872 [label="amount <= 321.599\ngini = 0.005\nsamples = 2930\nvalue = [8, 2922]"] ;
854 -> 872 ;
873 [label="amount <= 318.92\ngini = 0.002\nsamples = 2449\nvalue = [3, 2446]"] ;
872 -> 873 ;
874 [label="amount <= 318.919\ngini = 0.005\nsamples = 1191\nvalue = [3, 1188]"] ;
873 -> 874 ;
875 [label="amount <= 318.249\ngini = 0.003\nsamples = 1190\nvalue = [2, 1188]"] ;
874 -> 875 ;
876 [label="gini = 0.0\nsamples = 825\nvalue = [0, 825]"] ;
875 -> 876 ;
877 [label="amount <= 318.251\ngini = 0.011\nsamples = 365\nvalue = [2, 363]"] ;
875 -> 877 ;
878 [label="gini = 0.444\nsamples = 3\nvalue = [2, 1]"] ;
877 -> 878 ;
879 [label="gini = 0.0\nsamples = 362\nvalue = [0, 362]"] ;
877 -> 879 ;
880 [label="gini = 0.0\nsamples = 1\nvalue = [1, 0]"] ;
874 -> 880 ;
881 [label="gini = 0.0\nsamples = 1258\nvalue = [0, 1258]"] ;
873 -> 881 ;
882 [label="gini = 0.021\nsamples = 481\nvalue = [5, 476]"] ;
872 -> 882 ;
883 [label="gini = 0.0\nsamples = 6\nvalue = [6, 0]"] ;
853 -> 883 ;
884 [label="gini = 0.0\nsamples = 4\nvalue = [4, 0]"] ;
848 -> 884 ;
885 [label="txvariantcode <= 5.0\ngini = 0.003\nsamples = 2745\nvalue = [4, 2741]"] ;
847 -> 885 ;
886 [label="amount <= 330.309\ngini = 0.001\nsamples = 2743\nvalue = [2, 2741]"] ;
885 -> 886 ;
887 [label="amount <= 328.301\ngini = 0.001\nsamples = 2218\nvalue = [1, 2217]"] ;
886 -> 887 ;
888 [label="gini = 0.001\nsamples = 1384\nvalue = [1, 1383]"] ;
887 -> 888 ;
889 [label="gini = 0.0\nsamples = 834\nvalue = [0, 834]"] ;
887 -> 889 ;
890 [label="amount <= 330.31\ngini = 0.004\nsamples = 525\nvalue = [1, 524]"] ;
886 -> 890 ;
891 [label="gini = 0.0\nsamples = 1\nvalue = [1, 0]"] ;
890 -> 891 ;
892 [label="gini = 0.0\nsamples = 524\nvalue = [0, 524]"] ;
890 -> 892 ;
893 [label="gini = 0.0\nsamples = 2\nvalue = [2, 0]"] ;
885 -> 893 ;
894 [label="amount <= 348.065\ngini = 0.02\nsamples = 1557\nvalue = [16, 1541]"] ;
846 -> 894 ;
895 [label="gini = 0.0\nsamples = 14\nvalue = [14, 0]"] ;
894 -> 895 ;
896 [label="txvariantcode <= 3.001\ngini = 0.003\nsamples = 1543\nvalue = [2, 1541]"] ;
894 -> 896 ;
897 [label="gini = 0.008\nsamples = 492\nvalue = [2, 490]"] ;
896 -> 897 ;
898 [label="gini = 0.0\nsamples = 1051\nvalue = [0, 1051]"] ;
896 -> 898 ;
899 [label="gini = 0.0\nsamples = 4\nvalue = [4, 0]"] ;
845 -> 899 ;
900 [label="txvariantcode <= 3.003\ngini = 0.002\nsamples = 3364\nvalue = [4, 3360]"] ;
844 -> 900 ;
901 [label="amount <= 379.22\ngini = 0.006\nsamples = 1289\nvalue = [4, 1285]"] ;
900 -> 901 ;
902 [label="amount <= 367.323\ngini = 0.005\nsamples = 1288\nvalue = [3, 1285]"] ;
901 -> 902 ;
903 [label="gini = 0.0\nsamples = 598\nvalue = [0, 598]"] ;
902 -> 903 ;
904 [label="amount <= 367.35\ngini = 0.009\nsamples = 690\nvalue = [3, 687]"] ;
902 -> 904 ;
905 [label="gini = 0.0\nsamples = 1\nvalue = [1, 0]"] ;
904 -> 905 ;
906 [label="amount <= 375.202\ngini = 0.006\nsamples = 689\nvalue = [2, 687]"] ;
904 -> 906 ;
907 [label="amount <= 375.183\ngini = 0.015\nsamples = 260\nvalue = [2, 258]"] ;
906 -> 907 ;
908 [label="amount <= 370.181\ngini = 0.008\nsamples = 258\nvalue = [1, 257]"] ;
907 -> 908 ;
909 [label="amount <= 370.111\ngini = 0.024\nsamples = 83\nvalue = [1, 82]"] ;
908 -> 909 ;
910 [label="gini = 0.0\nsamples = 82\nvalue = [0, 82]"] ;
909 -> 910 ;
911 [label="gini = 0.0\nsamples = 1\nvalue = [1, 0]"] ;
909 -> 911 ;
912 [label="gini = 0.0\nsamples = 175\nvalue = [0, 175]"] ;
908 -> 912 ;
913 [label="gini = 0.5\nsamples = 2\nvalue = [1, 1]"] ;
907 -> 913 ;
914 [label="gini = 0.0\nsamples = 429\nvalue = [0, 429]"] ;
906 -> 914 ;
915 [label="gini = 0.0\nsamples = 1\nvalue = [1, 0]"] ;
901 -> 915 ;
916 [label="gini = 0.0\nsamples = 2075\nvalue = [0, 2075]"] ;
900 -> 916 ;
917 [label="txvariantcode <= 3.005\ngini = 0.038\nsamples = 1583\nvalue = [31, 1552]"] ;
843 -> 917 ;
918 [label="gini = 0.074\nsamples = 26\nvalue = [25, 1]"] ;
917 -> 918 ;
919 [label="amount <= 414.395\ngini = 0.008\nsamples = 1557\nvalue = [6, 1551]"] ;
917 -> 919 ;
920 [label="gini = 0.0\nsamples = 3\nvalue = [3, 0]"] ;
919 -> 920 ;
921 [label="txvariantcode <= 6.001\ngini = 0.004\nsamples = 1554\nvalue = [3, 1551]"] ;
919 -> 921 ;
922 [label="amount <= 501.656\ngini = 0.02\nsamples = 199\nvalue = [2, 197]"] ;
921 -> 922 ;
923 [label="gini = 0.0\nsamples = 196\nvalue = [0, 196]"] ;
922 -> 923 ;
924 [label="gini = 0.444\nsamples = 3\nvalue = [2, 1]"] ;
922 -> 924 ;
925 [label="amount <= 462.987\ngini = 0.001\nsamples = 1355\nvalue = [1, 1354]"] ;
921 -> 925 ;
926 [label="amount <= 437.677\ngini = 0.004\nsamples = 465\nvalue = [1, 464]"] ;
925 -> 926 ;
927 [label="gini = 0.0\nsamples = 464\nvalue = [0, 464]"] ;
926 -> 927 ;
928 [label="gini = 0.0\nsamples = 1\nvalue = [1, 0]"] ;
926 -> 928 ;
929 [label="gini = 0.0\nsamples = 890\nvalue = [0, 890]"] ;
925 -> 929 ;
930 [label="txvariantcode <= 9.0\ngini = 0.049\nsamples = 2194\nvalue = [55, 2139]"] ;
842 -> 930 ;
931 [label="gini = 0.057\nsamples = 34\nvalue = [33, 1]"] ;
930 -> 931 ;
932 [label="amount <= 331.985\ngini = 0.02\nsamples = 2160\nvalue = [22, 2138]"] ;
930 -> 932 ;
933 [label="gini = 0.0\nsamples = 13\nvalue = [13, 0]"] ;
932 -> 933 ;
934 [label="txvariantcode <= 11.003\ngini = 0.008\nsamples = 2147\nvalue = [9, 2138]"] ;
932 -> 934 ;
935 [label="amount <= 344.045\ngini = 0.012\nsamples = 1441\nvalue = [9, 1432]"] ;
934 -> 935 ;
936 [label="gini = 0.0\nsamples = 1\nvalue = [1, 0]"] ;
935 -> 936 ;
937 [label="amount <= 387.428\ngini = 0.011\nsamples = 1440\nvalue = [8, 1432]"] ;
935 -> 937 ;
938 [label="amount <= 366.155\ngini = 0.043\nsamples = 228\nvalue = [5, 223]"] ;
937 -> 938 ;
939 [label="txvariantcode <= 10.98\ngini = 0.009\nsamples = 224\nvalue = [1, 223]"] ;
938 -> 939 ;
940 [label="gini = 0.0\nsamples = 222\nvalue = [0, 222]"] ;
939 -> 940 ;
941 [label="gini = 0.5\nsamples = 2\nvalue = [1, 1]"] ;
939 -> 941 ;
942 [label="gini = 0.0\nsamples = 4\nvalue = [4, 0]"] ;
938 -> 942 ;
943 [label="amount <= 415.4\ngini = 0.005\nsamples = 1212\nvalue = [3, 1209]"] ;
937 -> 943 ;
944 [label="gini = 0.0\nsamples = 701\nvalue = [0, 701]"] ;
943 -> 944 ;
945 [label="amount <= 463.983\ngini = 0.012\nsamples = 511\nvalue = [3, 508]"] ;
943 -> 945 ;
946 [label="gini = 0.0\nsamples = 1\nvalue = [1, 0]"] ;
945 -> 946 ;
947 [label="txvariantcode <= 10.999\ngini = 0.008\nsamples = 510\nvalue = [2, 508]"] ;
945 -> 947 ;
948 [label="gini = 0.0\nsamples = 506\nvalue = [0, 506]"] ;
947 -> 948 ;
949 [label="gini = 0.5\nsamples = 4\nvalue = [2, 2]"] ;
947 -> 949 ;
950 [label="gini = 0.0\nsamples = 706\nvalue = [0, 706]"] ;
934 -> 950 ;
951 [label="gini = 0.0\nsamples = 2\nvalue = [2, 0]"] ;
671 -> 951 ;
952 [label="gini = 0.091\nsamples = 21\nvalue = [20, 1]"] ;
670 -> 952 ;
953 [label="currencycode <= 3.0\ngini = 0.141\nsamples = 171195\nvalue = [13054, 158141]"] ;
183 -> 953 ;
954 [label="currencycode <= 2.0\ngini = 0.106\nsamples = 160092\nvalue = [9016, 151076]"] ;
953 -> 954 ;
955 [label="cardverificationcodesupplied <= 1.5\ngini = 0.0\nsamples = 66696\nvalue = [1, 66695]"] ;
954 -> 955 ;
956 [label="gini = 0.0\nsamples = 66695\nvalue = [0, 66695]"] ;
955 -> 956 ;
957 [label="gini = 0.0\nsamples = 1\nvalue = [1, 0]"] ;
955 -> 957 ;
958 [label="amount <= 13.134\ngini = 0.174\nsamples = 93396\nvalue = [9015, 84381]"] ;
954 -> 958 ;
959 [label="gini = 0.0\nsamples = 327\nvalue = [327, 0]"] ;
958 -> 959 ;
960 [label="amount <= 26.268\ngini = 0.169\nsamples = 93069\nvalue = [8688, 84381]"] ;
958 -> 960 ;
961 [label="amount <= 19.976\ngini = 0.35\nsamples = 6375\nvalue = [1440, 4935]"] ;
960 -> 961 ;
962 [label="txvariantcode <= 8.0\ngini = 0.238\nsamples = 5721\nvalue = [788, 4933]"] ;
961 -> 962 ;
963 [label="txvariantcode <= 3.0\ngini = 0.195\nsamples = 5541\nvalue = [608, 4933]"] ;
962 -> 963 ;
964 [label="amount <= 17.579\ngini = 0.316\nsamples = 2031\nvalue = [400, 1631]"] ;
963 -> 964 ;
965 [label="amount <= 13.186\ngini = 0.495\nsamples = 525\nvalue = [290, 235]"] ;
964 -> 965 ;
966 [label="amount <= 13.165\ngini = 0.029\nsamples = 67\nvalue = [66, 1]"] ;
965 -> 966 ;
967 [label="gini = 0.034\nsamples = 58\nvalue = [57, 1]"] ;
966 -> 967 ;
968 [label="gini = 0.0\nsamples = 9\nvalue = [9, 0]"] ;
966 -> 968 ;
969 [label="amount <= 17.511\ngini = 0.5\nsamples = 458\nvalue = [224, 234]"] ;
965 -> 969 ;
970 [label="amount <= 13.807\ngini = 0.469\nsamples = 354\nvalue = [133, 221]"] ;
969 -> 970 ;
971 [label="gini = 0.049\nsamples = 40\nvalue = [1, 39]"] ;
970 -> 971 ;
972 [label="amount <= 15.831\ngini = 0.487\nsamples = 314\nvalue = [132, 182]"] ;
970 -> 972 ;
973 [label="amount <= 15.793\ngini = 0.5\nsamples = 205\nvalue = [105, 100]"] ;
972 -> 973 ;
974 [label="amount <= 15.358\ngini = 0.498\nsamples = 185\nvalue = [86, 99]"] ;
973 -> 974 ;
975 [label="amount <= 15.348\ngini = 0.497\nsamples = 157\nvalue = [85, 72]"] ;
974 -> 975 ;
976 [label="amount <= 14.073\ngini = 0.482\nsamples = 121\nvalue = [49, 72]"] ;
975 -> 976 ;
977 [label="gini = 0.438\nsamples = 37\nvalue = [25, 12]"] ;
976 -> 977 ;
978 [label="amount <= 14.88\ngini = 0.408\nsamples = 84\nvalue = [24, 60]"] ;
976 -> 978 ;
979 [label="gini = 0.133\nsamples = 42\nvalue = [3, 39]"] ;
978 -> 979 ;
980 [label="gini = 0.5\nsamples = 42\nvalue = [21, 21]"] ;
978 -> 980 ;
981 [label="gini = 0.0\nsamples = 36\nvalue = [36, 0]"] ;
975 -> 981 ;
982 [label="gini = 0.069\nsamples = 28\nvalue = [1, 27]"] ;
974 -> 982 ;
983 [label="gini = 0.095\nsamples = 20\nvalue = [19, 1]"] ;
973 -> 983 ;
984 [label="amount <= 16.777\ngini = 0.373\nsamples = 109\nvalue = [27, 82]"] ;
972 -> 984 ;
985 [label="amount <= 16.412\ngini = 0.14\nsamples = 53\nvalue = [4, 49]"] ;
984 -> 985 ;
986 [label="gini = 0.061\nsamples = 32\nvalue = [1, 31]"] ;
985 -> 986 ;
987 [label="gini = 0.245\nsamples = 21\nvalue = [3, 18]"] ;
985 -> 987 ;
988 [label="amount <= 16.918\ngini = 0.484\nsamples = 56\nvalue = [23, 33]"] ;
984 -> 988 ;
989 [label="gini = 0.444\nsamples = 27\nvalue = [18, 9]"] ;
988 -> 989 ;
990 [label="gini = 0.285\nsamples = 29\nvalue = [5, 24]"] ;
988 -> 990 ;
991 [label="amount <= 17.557\ngini = 0.219\nsamples = 104\nvalue = [91, 13]"] ;
969 -> 991 ;
992 [label="amount <= 17.555\ngini = 0.096\nsamples = 79\nvalue = [75, 4]"] ;
991 -> 992 ;
993 [label="gini = 0.444\nsamples = 9\nvalue = [6, 3]"] ;
992 -> 993 ;
994 [label="gini = 0.028\nsamples = 70\nvalue = [69, 1]"] ;
992 -> 994 ;
995 [label="gini = 0.461\nsamples = 25\nvalue = [16, 9]"] ;
991 -> 995 ;
996 [label="amount <= 19.778\ngini = 0.135\nsamples = 1506\nvalue = [110, 1396]"] ;
964 -> 996 ;
997 [label="amount <= 19.712\ngini = 0.189\nsamples = 1044\nvalue = [110, 934]"] ;
996 -> 997 ;
998 [label="amount <= 18.436\ngini = 0.136\nsamples = 926\nvalue = [68, 858]"] ;
997 -> 998 ;
999 [label="amount <= 17.816\ngini = 0.006\nsamples = 348\nvalue = [1, 347]"] ;
998 -> 999 ;
1000 [label="amount <= 17.814\ngini = 0.022\nsamples = 88\nvalue = [1, 87]"] ;
999 -> 1000 ;
1001 [label="gini = 0.0\nsamples = 87\nvalue = [0, 87]"] ;
1000 -> 1001 ;
1002 [label="gini = 0.0\nsamples = 1\nvalue = [1, 0]"] ;
1000 -> 1002 ;
1003 [label="gini = 0.0\nsamples = 260\nvalue = [0, 260]"] ;
999 -> 1003 ;
1004 [label="amount <= 18.454\ngini = 0.205\nsamples = 578\nvalue = [67, 511]"] ;
998 -> 1004 ;
1005 [label="gini = 0.298\nsamples = 33\nvalue = [27, 6]"] ;
1004 -> 1005 ;
1006 [label="amount <= 18.663\ngini = 0.136\nsamples = 545\nvalue = [40, 505]"] ;
1004 -> 1006 ;
1007 [label="amount <= 18.662\ngini = 0.401\nsamples = 108\nvalue = [30, 78]"] ;
1006 -> 1007 ;
1008 [label="amount <= 18.624\ngini = 0.093\nsamples = 82\nvalue = [4, 78]"] ;
1007 -> 1008 ;
1009 [label="gini = 0.0\nsamples = 62\nvalue = [0, 62]"] ;
1008 -> 1009 ;
1010 [label="gini = 0.32\nsamples = 20\nvalue = [4, 16]"] ;
1008 -> 1010 ;
1011 [label="gini = 0.0\nsamples = 26\nvalue = [26, 0]"] ;
1007 -> 1011 ;
1012 [label="amount <= 19.316\ngini = 0.045\nsamples = 437\nvalue = [10, 427]"] ;
1006 -> 1012 ;
1013 [label="gini = 0.0\nsamples = 272\nvalue = [0, 272]"] ;
1012 -> 1013 ;
1014 [label="amount <= 19.325\ngini = 0.114\nsamples = 165\nvalue = [10, 155]"] ;
1012 -> 1014 ;
1015 [label="gini = 0.198\nsamples = 9\nvalue = [8, 1]"] ;
1014 -> 1015 ;
1016 [label="amount <= 19.665\ngini = 0.025\nsamples = 156\nvalue = [2, 154]"] ;
1014 -> 1016 ;
1017 [label="amount <= 19.449\ngini = 0.015\nsamples = 129\nvalue = [1, 128]"] ;
1016 -> 1017 ;
1018 [label="amount <= 19.444\ngini = 0.039\nsamples = 50\nvalue = [1, 49]"] ;
1017 -> 1018 ;
1019 [label="gini = 0.0\nsamples = 49\nvalue = [0, 49]"] ;
1018 -> 1019 ;
1020 [label="gini = 0.0\nsamples = 1\nvalue = [1, 0]"] ;
1018 -> 1020 ;
1021 [label="gini = 0.0\nsamples = 79\nvalue = [0, 79]"] ;
1017 -> 1021 ;
1022 [label="gini = 0.071\nsamples = 27\nvalue = [1, 26]"] ;
1016 -> 1022 ;
1023 [label="amount <= 19.756\ngini = 0.458\nsamples = 118\nvalue = [42, 76]"] ;
997 -> 1023 ;
1024 [label="gini = 0.462\nsamples = 47\nvalue = [30, 17]"] ;
1023 -> 1024 ;
1025 [label="amount <= 19.773\ngini = 0.281\nsamples = 71\nvalue = [12, 59]"] ;
1023 -> 1025 ;
1026 [label="gini = 0.0\nsamples = 48\nvalue = [0, 48]"] ;
1025 -> 1026 ;
1027 [label="gini = 0.499\nsamples = 23\nvalue = [12, 11]"] ;
1025 -> 1027 ;
1028 [label="gini = 0.0\nsamples = 462\nvalue = [0, 462]"] ;
996 -> 1028 ;
1029 [label="txvariantcode <= 6.999\ngini = 0.111\nsamples = 3510\nvalue = [208, 3302]"] ;
963 -> 1029 ;
1030 [label="txvariantcode <= 4.001\ngini = 0.038\nsamples = 2157\nvalue = [42, 2115]"] ;
1029 -> 1030 ;
1031 [label="txvariantcode <= 3.999\ngini = 0.135\nsamples = 579\nvalue = [42, 537]"] ;
1030 -> 1031 ;
1032 [label="gini = 0.0\nsamples = 537\nvalue = [0, 537]"] ;
1031 -> 1032 ;
1033 [label="gini = 0.0\nsamples = 42\nvalue = [42, 0]"] ;
1031 -> 1033 ;
1034 [label="gini = 0.0\nsamples = 1578\nvalue = [0, 1578]"] ;
1030 -> 1034 ;
1035 [label="amount <= 18.434\ngini = 0.215\nsamples = 1353\nvalue = [166, 1187]"] ;
1029 -> 1035 ;
1036 [label="amount <= 13.175\ngini = 0.173\nsamples = 1311\nvalue = [125, 1186]"] ;
1035 -> 1036 ;
1037 [label="gini = 0.193\nsamples = 37\nvalue = [33, 4]"] ;
1036 -> 1037 ;
1038 [label="amount <= 17.578\ngini = 0.134\nsamples = 1274\nvalue = [92, 1182]"] ;
1036 -> 1038 ;
1039 [label="amount <= 17.555\ngini = 0.204\nsamples = 788\nvalue = [91, 697]"] ;
1038 -> 1039 ;
1040 [label="amount <= 13.814\ngini = 0.142\nsamples = 741\nvalue = [57, 684]"] ;
1039 -> 1040 ;
1041 [label="amount <= 13.182\ngini = 0.02\nsamples = 98\nvalue = [1, 97]"] ;
1040 -> 1041 ;
1042 [label="gini = 0.444\nsamples = 3\nvalue = [1, 2]"] ;
1041 -> 1042 ;
1043 [label="gini = 0.0\nsamples = 95\nvalue = [0, 95]"] ;
1041 -> 1043 ;
1044 [label="amount <= 13.818\ngini = 0.159\nsamples = 643\nvalue = [56, 587]"] ;
1040 -> 1044 ;
1045 [label="gini = 0.0\nsamples = 4\nvalue = [4, 0]"] ;
1044 -> 1045 ;
1046 [label="amount <= 15.367\ngini = 0.15\nsamples = 639\nvalue = [52, 587]"] ;
1044 -> 1046 ;
1047 [label="amount <= 15.355\ngini = 0.211\nsamples = 250\nvalue = [30, 220]"] ;
1046 -> 1047 ;
1048 [label="amount <= 14.914\ngini = 0.153\nsamples = 240\nvalue = [20, 220]"] ;
1047 -> 1048 ;
1049 [label="amount <= 14.045\ngini = 0.077\nsamples = 174\nvalue = [7, 167]"] ;
1048 -> 1049 ;
1050 [label="gini = 0.278\nsamples = 42\nvalue = [7, 35]"] ;
1049 -> 1050 ;
1051 [label="gini = 0.0\nsamples = 132\nvalue = [0, 132]"] ;
1049 -> 1051 ;
1052 [label="amount <= 14.931\ngini = 0.316\nsamples = 66\nvalue = [13, 53]"] ;
1048 -> 1052 ;
1053 [label="gini = 0.0\nsamples = 12\nvalue = [12, 0]"] ;
1052 -> 1053 ;
1054 [label="amount <= 15.311\ngini = 0.036\nsamples = 54\nvalue = [1, 53]"] ;
1052 -> 1054 ;
1055 [label="gini = 0.0\nsamples = 48\nvalue = [0, 48]"] ;
1054 -> 1055 ;
1056 [label="gini = 0.278\nsamples = 6\nvalue = [1, 5]"] ;
1054 -> 1056 ;
1057 [label="gini = 0.0\nsamples = 10\nvalue = [10, 0]"] ;
1047 -> 1057 ;
1058 [label="amount <= 16.754\ngini = 0.107\nsamples = 389\nvalue = [22, 367]"] ;
1046 -> 1058 ;
1059 [label="amount <= 15.815\ngini = 0.064\nsamples = 243\nvalue = [8, 235]"] ;
1058 -> 1059 ;
1060 [label="amount <= 15.796\ngini = 0.145\nsamples = 76\nvalue = [6, 70]"] ;
1059 -> 1060 ;
1061 [label="gini = 0.0\nsamples = 66\nvalue = [0, 66]"] ;
1060 -> 1061 ;
1062 [label="gini = 0.48\nsamples = 10\nvalue = [6, 4]"] ;
1060 -> 1062 ;
1063 [label="amount <= 16.477\ngini = 0.024\nsamples = 167\nvalue = [2, 165]"] ;
1059 -> 1063 ;
1064 [label="gini = 0.0\nsamples = 122\nvalue = [0, 122]"] ;
1063 -> 1064 ;
1065 [label="gini = 0.085\nsamples = 45\nvalue = [2, 43]"] ;
1063 -> 1065 ;
1066 [label="amount <= 17.134\ngini = 0.173\nsamples = 146\nvalue = [14, 132]"] ;
1058 -> 1066 ;
1067 [label="amount <= 17.116\ngini = 0.293\nsamples = 73\nvalue = [13, 60]"] ;
1066 -> 1067 ;
1068 [label="amount <= 16.911\ngini = 0.216\nsamples = 65\nvalue = [8, 57]"] ;
1067 -> 1068 ;
1069 [label="gini = 0.384\nsamples = 27\nvalue = [7, 20]"] ;
1068 -> 1069 ;
1070 [label="gini = 0.051\nsamples = 38\nvalue = [1, 37]"] ;
1068 -> 1070 ;
1071 [label="gini = 0.469\nsamples = 8\nvalue = [5, 3]"] ;
1067 -> 1071 ;
1072 [label="amount <= 17.511\ngini = 0.027\nsamples = 73\nvalue = [1, 72]"] ;
1066 -> 1072 ;
1073 [label="gini = 0.0\nsamples = 62\nvalue = [0, 62]"] ;
1072 -> 1073 ;
1074 [label="gini = 0.165\nsamples = 11\nvalue = [1, 10]"] ;
1072 -> 1074 ;
1075 [label="gini = 0.4\nsamples = 47\nvalue = [34, 13]"] ;
1039 -> 1075 ;
1076 [label="amount <= 18.391\ngini = 0.004\nsamples = 486\nvalue = [1, 485]"] ;
1038 -> 1076 ;
1077 [label="gini = 0.0\nsamples = 464\nvalue = [0, 464]"] ;
1076 -> 1077 ;
1078 [label="gini = 0.087\nsamples = 22\nvalue = [1, 21]"] ;
1076 -> 1078 ;
1079 [label="gini = 0.046\nsamples = 42\nvalue = [41, 1]"] ;
1035 -> 1079 ;
1080 [label="gini = 0.0\nsamples = 180\nvalue = [180, 0]"] ;
962 -> 1080 ;
1081 [label="amount <= 26.205\ngini = 0.006\nsamples = 654\nvalue = [652, 2]"] ;
961 -> 1081 ;
1082 [label="amount <= 20.086\ngini = 0.003\nsamples = 652\nvalue = [651, 1]"] ;
1081 -> 1082 ;
1083 [label="gini = 0.133\nsamples = 14\nvalue = [13, 1]"] ;
1082 -> 1083 ;
1084 [label="gini = 0.0\nsamples = 638\nvalue = [638, 0]"] ;
1082 -> 1084 ;
1085 [label="gini = 0.5\nsamples = 2\nvalue = [1, 1]"] ;
1081 -> 1085 ;
1086 [label="currencycode <= 2.0\ngini = 0.153\nsamples = 86694\nvalue = [7248, 79446]"] ;
960 -> 1086 ;
1087 [label="amount <= 145.209\ngini = 0.169\nsamples = 77793\nvalue = [7248, 70545]"] ;
1086 -> 1087 ;
1088 [label="amount <= 87.96\ngini = 0.162\nsamples = 77437\nvalue = [6896, 70541]"] ;
1087 -> 1088 ;
1089 [label="amount <= 38.685\ngini = 0.151\nsamples = 73572\nvalue = [6050, 67522]"] ;
1088 -> 1089 ;
1090 [label="amount <= 38.676\ngini = 0.226\nsamples = 12362\nvalue = [1605, 10757]"] ;
1089 -> 1090 ;
1091 [label="txvariantcode <= 10.0\ngini = 0.214\nsamples = 12230\nvalue = [1490, 10740]"] ;
1090 -> 1091 ;
1092 [label="txvariantcode <= 9.999\ngini = 0.231\nsamples = 10792\nvalue = [1440, 9352]"] ;
1091 -> 1092 ;
1093 [label="amount <= 29.845\ngini = 0.212\nsamples = 10632\nvalue = [1281, 9351]"] ;
1092 -> 1093 ;
1094 [label="amount <= 26.312\ngini = 0.139\nsamples = 4587\nvalue = [345, 4242]"] ;
1093 -> 1094 ;
1095 [label="txvariantcode <= 7.001\ngini = 0.003\nsamples = 726\nvalue = [1, 725]"] ;
1094 -> 1095 ;
1096 [label="txvariantcode <= 6.998\ngini = 0.008\nsamples = 238\nvalue = [1, 237]"] ;
1095 -> 1096 ;
1097 [label="gini = 0.0\nsamples = 237\nvalue = [0, 237]"] ;
1096 -> 1097 ;
1098 [label="gini = 0.0\nsamples = 1\nvalue = [1, 0]"] ;
1096 -> 1098 ;
1099 [label="gini = 0.0\nsamples = 488\nvalue = [0, 488]"] ;
1095 -> 1099 ;
1100 [label="amount <= 26.312\ngini = 0.162\nsamples = 3861\nvalue = [344, 3517]"] ;
1094 -> 1100 ;
1101 [label="gini = 0.153\nsamples = 12\nvalue = [11, 1]"] ;
1100 -> 1101 ;
1102 [label="txvariantcode <= 4.991\ngini = 0.158\nsamples = 3849\nvalue = [333, 3516]"] ;
1100 -> 1102 ;
1103 [label="amount <= 28.129\ngini = 0.124\nsamples = 3172\nvalue = [210, 2962]"] ;
1102 -> 1103 ;
1104 [label="amount <= 28.123\ngini = 0.171\nsamples = 1584\nvalue = [150, 1434]"] ;
1103 -> 1104 ;
1105 [label="amount <= 27.676\ngini = 0.163\nsamples = 1575\nvalue = [141, 1434]"] ;
1104 -> 1105 ;
1106 [label="amount <= 26.382\ngini = 0.124\nsamples = 1320\nvalue = [88, 1232]"] ;
1105 -> 1106 ;
1107 [label="amount <= 26.373\ngini = 0.173\nsamples = 775\nvalue = [74, 701]"] ;
1106 -> 1107 ;
1108 [label="txvariantcode <= 3.001\ngini = 0.15\nsamples = 761\nvalue = [62, 699]"] ;
1107 -> 1108 ;
1109 [label="amount <= 26.352\ngini = 0.196\nsamples = 536\nvalue = [59, 477]"] ;
1108 -> 1109 ;
1110 [label="gini = 0.0\nsamples = 3\nvalue = [3, 0]"] ;
1109 -> 1110 ;
1111 [label="amount <= 26.363\ngini = 0.188\nsamples = 533\nvalue = [56, 477]"] ;
1109 -> 1111 ;
1112 [label="amount <= 26.358\ngini = 0.186\nsamples = 530\nvalue = [55, 475]"] ;
1111 -> 1112 ;
1113 [label="gini = 0.187\nsamples = 526\nvalue = [55, 471]"] ;
1112 -> 1113 ;
1114 [label="gini = 0.0\nsamples = 4\nvalue = [0, 4]"] ;
1112 -> 1114 ;
1115 [label="gini = 0.444\nsamples = 3\nvalue = [1, 2]"] ;
1111 -> 1115 ;
1116 [label="amount <= 26.356\ngini = 0.026\nsamples = 225\nvalue = [3, 222]"] ;
1108 -> 1116 ;
1117 [label="gini = 0.0\nsamples = 222\nvalue = [0, 222]"] ;
1116 -> 1117 ;
1118 [label="gini = 0.0\nsamples = 3\nvalue = [3, 0]"] ;
1116 -> 1118 ;
1119 [label="gini = 0.245\nsamples = 14\nvalue = [12, 2]"] ;
1107 -> 1119 ;
1120 [label="amount <= 26.751\ngini = 0.05\nsamples = 545\nvalue = [14, 531]"] ;
1106 -> 1120 ;
1121 [label="gini = 0.0\nsamples = 151\nvalue = [0, 151]"] ;
1120 -> 1121 ;
1122 [label="amount <= 26.752\ngini = 0.069\nsamples = 394\nvalue = [14, 380]"] ;
1120 -> 1122 ;
1123 [label="gini = 0.0\nsamples = 1\nvalue = [1, 0]"] ;
1122 -> 1123 ;
1124 [label="amount <= 27.195\ngini = 0.064\nsamples = 393\nvalue = [13, 380]"] ;
1122 -> 1124 ;
1125 [label="amount <= 27.192\ngini = 0.107\nsamples = 176\nvalue = [10, 166]"] ;
1124 -> 1125 ;
1126 [label="amount <= 27.073\ngini = 0.088\nsamples = 174\nvalue = [8, 166]"] ;
1125 -> 1126 ;
1127 [label="amount <= 27.072\ngini = 0.115\nsamples = 131\nvalue = [8, 123]"] ;
1126 -> 1127 ;
1128 [label="amount <= 27.012\ngini = 0.061\nsamples = 127\nvalue = [4, 123]"] ;
1127 -> 1128 ;
1129 [label="amount <= 27.011\ngini = 0.075\nsamples = 103\nvalue = [4, 99]"] ;
1128 -> 1129 ;
1130 [label="amount <= 26.969\ngini = 0.057\nsamples = 102\nvalue = [3, 99]"] ;
1129 -> 1130 ;
1131 [label="amount <= 26.77\ngini = 0.043\nsamples = 90\nvalue = [2, 88]"] ;
1130 -> 1131 ;
1132 [label="gini = 0.117\nsamples = 16\nvalue = [1, 15]"] ;
1131 -> 1132 ;
1133 [label="amount <= 26.889\ngini = 0.027\nsamples = 74\nvalue = [1, 73]"] ;
1131 -> 1133 ;
1134 [label="gini = 0.0\nsamples = 46\nvalue = [0, 46]"] ;
1133 -> 1134 ;
1135 [label="gini = 0.069\nsamples = 28\nvalue = [1, 27]"] ;
1133 -> 1135 ;
1136 [label="gini = 0.153\nsamples = 12\nvalue = [1, 11]"] ;
1130 -> 1136 ;
1137 [label="gini = 0.0\nsamples = 1\nvalue = [1, 0]"] ;
1129 -> 1137 ;
1138 [label="gini = 0.0\nsamples = 24\nvalue = [0, 24]"] ;
1128 -> 1138 ;
1139 [label="gini = 0.0\nsamples = 4\nvalue = [4, 0]"] ;
1127 -> 1139 ;
1140 [label="gini = 0.0\nsamples = 43\nvalue = [0, 43]"] ;
1126 -> 1140 ;
1141 [label="gini = 0.0\nsamples = 2\nvalue = [2, 0]"] ;
1125 -> 1141 ;
1142 [label="amount <= 27.627\ngini = 0.027\nsamples = 217\nvalue = [3, 214]"] ;
1124 -> 1142 ;
1143 [label="amount <= 27.351\ngini = 0.01\nsamples = 190\nvalue = [1, 189]"] ;
1142 -> 1143 ;
1144 [label="amount <= 27.346\ngini = 0.033\nsamples = 60\nvalue = [1, 59]"] ;
1143 -> 1144 ;
1145 [label="gini = 0.0\nsamples = 59\nvalue = [0, 59]"] ;
1144 -> 1145 ;
1146 [label="gini = 0.0\nsamples = 1\nvalue = [1, 0]"] ;
1144 -> 1146 ;
1147 [label="gini = 0.0\nsamples = 130\nvalue = [0, 130]"] ;
1143 -> 1147 ;
1148 [label="gini = 0.137\nsamples = 27\nvalue = [2, 25]"] ;
1142 -> 1148 ;
1149 [label="amount <= 27.676\ngini = 0.329\nsamples = 255\nvalue = [53, 202]"] ;
1105 -> 1149 ;
1150 [label="gini = 0.0\nsamples = 33\nvalue = [33, 0]"] ;
1149 -> 1150 ;
1151 [label="amount <= 28.011\ngini = 0.164\nsamples = 222\nvalue = [20, 202]"] ;
1149 -> 1151 ;
1152 [label="amount <= 27.69\ngini = 0.025\nsamples = 155\nvalue = [2, 153]"] ;
1151 -> 1152 ;
1153 [label="gini = 0.32\nsamples = 10\nvalue = [2, 8]"] ;
1152 -> 1153 ;
1154 [label="gini = 0.0\nsamples = 145\nvalue = [0, 145]"] ;
1152 -> 1154 ;
1155 [label="amount <= 28.013\ngini = 0.393\nsamples = 67\nvalue = [18, 49]"] ;
1151 -> 1155 ;
1156 [label="gini = 0.0\nsamples = 7\nvalue = [7, 0]"] ;
1155 -> 1156 ;
1157 [label="amount <= 28.088\ngini = 0.299\nsamples = 60\nvalue = [11, 49]"] ;
1155 -> 1157 ;
1158 [label="gini = 0.149\nsamples = 37\nvalue = [3, 34]"] ;
1157 -> 1158 ;
1159 [label="gini = 0.454\nsamples = 23\nvalue = [8, 15]"] ;
1157 -> 1159 ;
1160 [label="gini = 0.0\nsamples = 9\nvalue = [9, 0]"] ;
1104 -> 1160 ;
1161 [label="txvariantcode <= 3.5\ngini = 0.073\nsamples = 1588\nvalue = [60, 1528]"] ;
1103 -> 1161 ;
1162 [label="amount <= 28.556\ngini = 0.068\nsamples = 1584\nvalue = [56, 1528]"] ;
1161 -> 1162 ;
1163 [label="amount <= 28.512\ngini = 0.012\nsamples = 648\nvalue = [4, 644]"] ;
1162 -> 1163 ;
1164 [label="amount <= 28.511\ngini = 0.032\nsamples = 187\nvalue = [3, 184]"] ;
1163 -> 1164 ;
1165 [label="amount <= 28.295\ngini = 0.011\nsamples = 184\nvalue = [1, 183]"] ;
1164 -> 1165 ;
1166 [label="amount <= 28.29\ngini = 0.027\nsamples = 73\nvalue = [1, 72]"] ;
1165 -> 1166 ;
1167 [label="gini = 0.0\nsamples = 72\nvalue = [0, 72]"] ;
1166 -> 1167 ;
1168 [label="gini = 0.0\nsamples = 1\nvalue = [1, 0]"] ;
1166 -> 1168 ;
1169 [label="gini = 0.0\nsamples = 111\nvalue = [0, 111]"] ;
1165 -> 1169 ;
1170 [label="gini = 0.444\nsamples = 3\nvalue = [2, 1]"] ;
1164 -> 1170 ;
1171 [label="amount <= 28.534\ngini = 0.004\nsamples = 461\nvalue = [1, 460]"] ;
1163 -> 1171 ;
1172 [label="amount <= 28.534\ngini = 0.009\nsamples = 213\nvalue = [1, 212]"] ;
1171 -> 1172 ;
1173 [label="gini = 0.0\nsamples = 212\nvalue = [0, 212]"] ;
1172 -> 1173 ;
1174 [label="gini = 0.0\nsamples = 1\nvalue = [1, 0]"] ;
1172 -> 1174 ;
1175 [label="gini = 0.0\nsamples = 248\nvalue = [0, 248]"] ;
1171 -> 1175 ;
1176 [label="amount <= 28.557\ngini = 0.105\nsamples = 936\nvalue = [52, 884]"] ;
1162 -> 1176 ;
1177 [label="gini = 0.198\nsamples = 9\nvalue = [8, 1]"] ;
1176 -> 1177 ;
1178 [label="amount <= 29.217\ngini = 0.09\nsamples = 927\nvalue = [44, 883]"] ;
1176 -> 1178 ;
1179 [label="amount <= 29.215\ngini = 0.141\nsamples = 485\nvalue = [37, 448]"] ;
1178 -> 1179 ;
1180 [label="amount <= 28.969\ngini = 0.111\nsamples = 476\nvalue = [28, 448]"] ;
1179 -> 1180 ;
1181 [label="amount <= 28.762\ngini = 0.021\nsamples = 287\nvalue = [3, 284]"] ;
1180 -> 1181 ;
1182 [label="amount <= 28.758\ngini = 0.038\nsamples = 155\nvalue = [3, 152]"] ;
1181 -> 1182 ;
1183 [label="amount <= 28.723\ngini = 0.013\nsamples = 153\nvalue = [1, 152]"] ;
1182 -> 1183 ;
1184 [label="gini = 0.0\nsamples = 128\nvalue = [0, 128]"] ;
1183 -> 1184 ;
1185 [label="gini = 0.077\nsamples = 25\nvalue = [1, 24]"] ;
1183 -> 1185 ;
1186 [label="gini = 0.0\nsamples = 2\nvalue = [2, 0]"] ;
1182 -> 1186 ;
1187 [label="gini = 0.0\nsamples = 132\nvalue = [0, 132]"] ;
1181 -> 1187 ;
1188 [label="amount <= 29.014\ngini = 0.23\nsamples = 189\nvalue = [25, 164]"] ;
1180 -> 1188 ;
1189 [label="gini = 0.495\nsamples = 42\nvalue = [23, 19]"] ;
1188 -> 1189 ;
1190 [label="amount <= 29.171\ngini = 0.027\nsamples = 147\nvalue = [2, 145]"] ;
1188 -> 1190 ;
1191 [label="gini = 0.0\nsamples = 108\nvalue = [0, 108]"] ;
1190 -> 1191 ;
